{
    "in_shape": [
        1,
        150,
        1
    ],
    "layers": [
        {
            "type": "unknown",
            "activation": "",
            "shape": [
                1,
                174,
                1
            ],
            "weights": []
        },
        {
            "type": "conv1d",
            "activation": "",
            "shape": [
                1,
                14,
                16
            ],
            "kernel_size": [
                12
            ],
            "dilation": [
                1
            ],
            "weights": [
                [
                    [
                        [
                            -0.12797297537326813,
                            -0.488952100276947,
                            -0.3704405725002289,
                            0.3509001135826111,
                            -0.7270406484603882,
                            -0.2974281907081604,
                            -0.41518157720565796,
                            -0.6077142953872681,
                            -0.0451727919280529,
                            0.09908425807952881,
                            0.1380494385957718,
                            0.05094830319285393,
                            -0.7093896865844727,
                            -0.5249580144882202,
                            -0.035781290382146835,
                            -0.642126739025116
                        ]
                    ],
                    [
                        [
                            0.11869598925113678,
                            -0.39638301730155945,
                            -0.4062163233757019,
                            0.47154945135116577,
                            -0.9454454183578491,
                            -0.2392682582139969,
                            -0.5787932276725769,
                            -0.2813164293766022,
                            0.06624019891023636,
                            0.2437179535627365,
                            0.13501232862472534,
                            -0.08933648467063904,
                            -0.4151207506656647,
                            -0.682658851146698,
                            0.08879048377275467,
                            -0.5803511738777161
                        ]
                    ],
                    [
                        [
                            0.4656890630722046,
                            -0.6476185917854309,
                            -0.19915446639060974,
                            0.531621515750885,
                            -0.9837875962257385,
                            -0.02126338705420494,
                            -0.6450207233428955,
                            -0.29602962732315063,
                            -0.3350316286087036,
                            0.3148632049560547,
                            0.051013924181461334,
                            -0.2162240594625473,
                            -0.7273640036582947,
                            -0.5648989677429199,
                            -0.28765222430229187,
                            -0.636133074760437
                        ]
                    ],
                    [
                        [
                            0.6097899079322815,
                            -0.45172592997550964,
                            -0.002405913081020117,
                            0.47614923119544983,
                            -0.7753164172172546,
                            0.07817687839269638,
                            -0.7636778354644775,
                            -0.2486279457807541,
                            -0.23027345538139343,
                            0.38672584295272827,
                            0.3653542995452881,
                            -0.16558755934238434,
                            -0.7837533950805664,
                            -0.5431432127952576,
                            -0.39581263065338135,
                            -0.5923769474029541
                        ]
                    ],
                    [
                        [
                            0.8807767629623413,
                            -0.33883029222488403,
                            0.2024814933538437,
                            0.41264060139656067,
                            -0.8660078048706055,
                            0.047643452882766724,
                            -0.6292836666107178,
                            0.021579697728157043,
                            -0.510908842086792,
                            0.3273565173149109,
                            0.44338440895080566,
                            -0.3567916452884674,
                            -0.6133936047554016,
                            -0.6995837688446045,
                            -0.4520196318626404,
                            -0.6219684481620789
                        ]
                    ],
                    [
                        [
                            0.6926785111427307,
                            -0.47516128420829773,
                            0.4191356599330902,
                            0.6939699649810791,
                            -0.7183721661567688,
                            0.3671865165233612,
                            -0.7569767832756042,
                            0.1752564162015915,
                            -0.5051885843276978,
                            0.3023025691509247,
                            0.2668037414550781,
                            -0.4394380450248718,
                            -0.6296375393867493,
                            -0.5112578868865967,
                            -0.5349072217941284,
                            -0.3481714129447937
                        ]
                    ],
                    [
                        [
                            0.05748283863067627,
                            0.4024333953857422,
                            0.3700675368309021,
                            0.7201886177062988,
                            0.2681380808353424,
                            0.5458490252494812,
                            0.6059625148773193,
                            -0.07803195714950562,
                            -0.14472700655460358,
                            0.1310432404279709,
                            0.01578582264482975,
                            -0.3582804203033447,
                            -0.2524133026599884,
                            -0.05740076303482056,
                            -0.419938862323761,
                            -0.304471880197525
                        ]
                    ],
                    [
                        [
                            0.03905211389064789,
                            0.3956831395626068,
                            0.44169363379478455,
                            0.9099388122558594,
                            0.23792684078216553,
                            0.5313909649848938,
                            0.6316308975219727,
                            0.1203688383102417,
                            -0.2589850127696991,
                            0.4021596312522888,
                            0.265150785446167,
                            -0.4139743745326996,
                            -0.13634559512138367,
                            0.09922917932271957,
                            -0.5243825912475586,
                            -0.21269802749156952
                        ]
                    ],
                    [
                        [
                            -0.0027446476742625237,
                            0.358426958322525,
                            0.4678780436515808,
                            0.7938946485519409,
                            0.28307196497917175,
                            0.8591492176055908,
                            0.7057470679283142,
                            0.07289716601371765,
                            -0.47309285402297974,
                            0.234310582280159,
                            0.2300090342760086,
                            -0.32479411363601685,
                            -0.05159750580787659,
                            0.2787659764289856,
                            -0.594826877117157,
                            -0.14707817137241364
                        ]
                    ],
                    [
                        [
                            -0.10956025123596191,
                            0.47764602303504944,
                            0.47336292266845703,
                            0.5660022497177124,
                            0.5771926641464233,
                            0.8244960904121399,
                            0.7787193059921265,
                            0.26117396354675293,
                            -0.5831431150436401,
                            0.32576417922973633,
                            0.25930505990982056,
                            -0.40608057379722595,
                            0.06645909696817398,
                            0.49107736349105835,
                            -0.39155063033103943,
                            -0.004171434324234724
                        ]
                    ],
                    [
                        [
                            -0.37985482811927795,
                            0.4602568447589874,
                            0.5313445329666138,
                            0.46722346544265747,
                            1.0378868579864502,
                            0.6497584581375122,
                            0.5865082740783691,
                            0.4712165296077728,
                            -0.24916376173496246,
                            0.27763304114341736,
                            0.18399791419506073,
                            -0.16823263466358185,
                            0.394442617893219,
                            0.7356577515602112,
                            -0.20080848038196564,
                            0.18245472013950348
                        ]
                    ],
                    [
                        [
                            -0.9791291356086731,
                            0.5804028511047363,
                            0.5945538878440857,
                            0.01539655216038227,
                            1.2330681085586548,
                            0.5827544927597046,
                            0.9029817581176758,
                            0.6153074502944946,
                            -0.29864829778671265,
                            0.03457939252257347,
                            0.12497401982545853,
                            -0.09034380316734314,
                            0.5922569036483765,
                            1.1217436790466309,
                            -0.09831927716732025,
                            0.4569229185581207
                        ]
                    ]
                ],
                [
                    0.00551740312948823,
                    -0.008428641594946384,
                    0.010851619765162468,
                    -0.006480908952653408,
                    0.00659800274297595,
                    0.005891039036214352,
                    -0.004943134728819132,
                    -0.008238101378083229,
                    0.019243929535150528,
                    -0.00880584679543972,
                    -0.010248152539134026,
                    0.026235906407237053,
                    -0.02262842282652855,
                    0.005471943411976099,
                    -0.0058443741872906685,
                    0.016740459948778152
                ]
            ]
        },
        {
            "type": "unknown",
            "activation": "",
            "shape": [
                1,
                38,
                16
            ],
            "weights": []
        },
        {
            "type": "conv1d",
            "activation": "",
            "shape": [
                1,
                3,
                16
            ],
            "kernel_size": [
                12
            ],
            "dilation": [
                1
            ],
            "weights": [
                [
                    [
                        [
                            0.11080028116703033,
                            1.0902435779571533,
                            0.1721673607826233,
                            0.32922524213790894,
                            -0.01290824543684721,
                            0.61151522397995,
                            -0.10465513169765472,
                            -0.08277660608291626,
                            -0.3076459467411041,
                            -0.2278471738100052,
                            0.012641403824090958,
                            0.0639534518122673,
                            -0.1788705736398697,
                            -0.2507650852203369,
                            -0.013573264703154564,
                            0.19615872204303741
                        ],
                        [
                            -0.24409449100494385,
                            -1.3698633909225464,
                            -0.8592568635940552,
                            -0.3665143847465515,
                            -0.7495887279510498,
                            0.26391375064849854,
                            0.05206875130534172,
                            0.218100905418396,
                            0.15928758680820465,
                            -0.15701058506965637,
                            0.2953870892524719,
                            0.2627939283847809,
                            -0.019539298489689827,
                            0.18099690973758698,
                            0.20956209301948547,
                            0.35649359226226807
                        ],
                        [
                            -0.13103923201560974,
                            -0.7025501132011414,
                            -1.6525616645812988,
                            -0.0778612345457077,
                            -0.6702972054481506,
                            1.1401770114898682,
                            -0.0249178409576416,
                            -0.08186948299407959,
                            -0.16262812912464142,
                            -0.0007171485922299325,
                            0.17136508226394653,
                            0.08794013410806656,
                            -0.10288206487894058,
                            0.015937838703393936,
                            0.15700264275074005,
                            0.6762242913246155
                        ],
                        [
                            0.3178790211677551,
                            0.1123209223151207,
                            -0.9331799149513245,
                            0.3062441051006317,
                            -0.22409401834011078,
                            1.596242070198059,
                            -0.3377056121826172,
                            -0.35188785195350647,
                            -0.4377884268760681,
                            0.2480689138174057,
                            -0.041666366159915924,
                            -0.030640071257948875,
                            0.10432332754135132,
                            -0.5824010968208313,
                            -0.14632375538349152,
                            1.031176209449768
                        ],
                        [
                            -0.24080203473567963,
                            -2.178126573562622,
                            -1.717148780822754,
                            -0.5276739597320557,
                            -0.8260390758514404,
                            0.11789844930171967,
                            0.2910103499889374,
                            0.4217458665370941,
                            0.324391633272171,
                            -0.2861325740814209,
                            0.14091266691684723,
                            0.3694494366645813,
                            -0.17309580743312836,
                            0.4433547556400299,
                            0.18477368354797363,
                            0.18125945329666138
                        ],
                        [
                            0.13386398553848267,
                            -0.6860449910163879,
                            -1.8393168449401855,
                            -0.0876932293176651,
                            -0.6859627962112427,
                            1.346825122833252,
                            -0.08552394807338715,
                            -0.13328172266483307,
                            -0.22084255516529083,
                            0.005072619300335646,
                            0.014024202711880207,
                            0.0783059298992157,
                            -0.01897076889872551,
                            -0.10928155481815338,
                            0.21315939724445343,
                            1.0166653394699097
                        ],
                        [
                            -0.13186247646808624,
                            -1.7259082794189453,
                            -0.9223823547363281,
                            -0.47990384697914124,
                            -0.6769176721572876,
                            0.7422809600830078,
                            0.26648983359336853,
                            0.2957971692085266,
                            0.15495054423809052,
                            -0.0010310676880180836,
                            0.25200241804122925,
                            0.40110042691230774,
                            -0.13700902462005615,
                            0.2976840138435364,
                            0.35742655396461487,
                            0.3162352442741394
                        ],
                        [
                            -0.07354311645030975,
                            -1.2874276638031006,
                            -0.9085964560508728,
                            -0.16060717403888702,
                            -0.9445759654045105,
                            0.2409122735261917,
                            0.12640371918678284,
                            0.1922934353351593,
                            0.06519095599651337,
                            -0.30556535720825195,
                            0.20027098059654236,
                            0.3414619266986847,
                            -0.08710625767707825,
                            0.33401939272880554,
                            0.22541876137256622,
                            0.29937297105789185
                        ],
                        [
                            -0.17189639806747437,
                            0.10337939113378525,
                            1.161159873008728,
                            -0.03678467869758606,
                            0.30194225907325745,
                            -1.0629637241363525,
                            0.19312219321727753,
                            0.2936412990093231,
                            0.3479781150817871,
                            -0.08534367382526398,
                            -0.10652309656143188,
                            -0.07080460339784622,
                            -0.033989813178777695,
                            0.1516401767730713,
                            -0.12516354024410248,
                            -0.7708786725997925
                        ],
                        [
                            0.00974978692829609,
                            0.17385044693946838,
                            -0.5305976867675781,
                            0.13269935548305511,
                            -0.13642080128192902,
                            0.9051250219345093,
                            -0.14757737517356873,
                            -0.1665256768465042,
                            -0.31158530712127686,
                            -0.03215380012989044,
                            0.008205258287489414,
                            0.027586063370108604,
                            0.08197701722383499,
                            -0.16637389361858368,
                            -0.12352821230888367,
                            0.6436711549758911
                        ],
                        [
                            -0.10895604640245438,
                            -0.0395844541490078,
                            -0.43247705698013306,
                            0.023219803348183632,
                            -0.22400981187820435,
                            0.47209569811820984,
                            7.164465205278248e-05,
                            -0.042139772325754166,
                            -0.19254042208194733,
                            -0.12289649993181229,
                            0.03585275635123253,
                            -0.04262612387537956,
                            -0.023723037913441658,
                            -0.08482903987169266,
                            0.00031686556758359075,
                            0.16239777207374573
                        ],
                        [
                            -0.008455703966319561,
                            0.1851099580526352,
                            0.8650162816047668,
                            -0.15045762062072754,
                            0.22689174115657806,
                            -1.221728801727295,
                            -0.022000879049301147,
                            0.23508751392364502,
                            0.26728343963623047,
                            0.022023413330316544,
                            -0.07604710012674332,
                            -0.13851819932460785,
                            0.05031204596161842,
                            0.09468274563550949,
                            0.006944573018699884,
                            -0.708573043346405
                        ],
                        [
                            -0.21756896376609802,
                            -1.3132315874099731,
                            -0.07991163432598114,
                            -0.37038764357566833,
                            -0.4591343402862549,
                            -0.7590906023979187,
                            0.4067405164241791,
                            0.3919459879398346,
                            0.374709814786911,
                            -0.2680758237838745,
                            0.28519514203071594,
                            0.3786386549472809,
                            -0.19498969614505768,
                            0.532416045665741,
                            0.3144474923610687,
                            -0.6166027188301086
                        ],
                        [
                            -0.2027691751718521,
                            -1.6995974779129028,
                            -0.5541191697120667,
                            -0.44165581464767456,
                            -0.5799012184143066,
                            0.06868500262498856,
                            0.353431761264801,
                            0.2332487404346466,
                            0.3593096137046814,
                            -0.11012337356805801,
                            0.18721376359462738,
                            0.25418904423713684,
                            -0.28619396686553955,
                            0.45545774698257446,
                            0.1547108143568039,
                            0.018951015546917915
                        ],
                        [
                            -0.21070565283298492,
                            -0.07570046931505203,
                            0.9911203980445862,
                            -0.17969244718551636,
                            0.39963385462760925,
                            -1.0614442825317383,
                            0.2213103473186493,
                            0.17679575085639954,
                            0.31886518001556396,
                            0.0005626544589176774,
                            0.07660073786973953,
                            -0.08864566683769226,
                            0.0461614765226841,
                            0.12097105383872986,
                            0.01218821108341217,
                            -0.666120707988739
                        ],
                        [
                            -0.3210451304912567,
                            -0.7481454014778137,
                            -0.029094023630023003,
                            -0.42914465069770813,
                            -0.309364378452301,
                            -0.8265703320503235,
                            0.28915002942085266,
                            0.4502994120121002,
                            0.5126638412475586,
                            -0.2448797971010208,
                            0.21800203621387482,
                            0.23440046608448029,
                            -0.31051260232925415,
                            0.5799034833908081,
                            0.35429617762565613,
                            -0.5402852892875671
                        ]
                    ],
                    [
                        [
                            -0.5284988880157471,
                            0.1492723673582077,
                            1.4906483888626099,
                            -0.31496137380599976,
                            -0.11816071718931198,
                            -1.1316850185394287,
                            0.39688095450401306,
                            0.2620258629322052,
                            0.2691008150577545,
                            -0.45555078983306885,
                            0.2832660377025604,
                            0.3314521014690399,
                            -0.35449495911598206,
                            0.6442407965660095,
                            0.2934758961200714,
                            -0.9851438403129578
                        ],
                        [
                            0.36536917090415955,
                            -0.21044610440731049,
                            -0.4522036015987396,
                            0.237465962767601,
                            0.18504998087882996,
                            0.49526020884513855,
                            -0.3079942762851715,
                            -0.2019197940826416,
                            -0.26651591062545776,
                            0.3794260323047638,
                            -0.25848186016082764,
                            -0.22703376412391663,
                            0.14473000168800354,
                            -0.2901504635810852,
                            -0.2717859447002411,
                            0.7284078001976013
                        ],
                        [
                            0.010452852584421635,
                            0.44894322752952576,
                            0.4234638214111328,
                            0.06211533769965172,
                            0.15002255141735077,
                            -0.08781622350215912,
                            -0.0709318146109581,
                            -0.12483875453472137,
                            0.005897123366594315,
                            0.02293192222714424,
                            0.07531873136758804,
                            -0.047615621238946915,
                            -0.01368678081780672,
                            0.09405455738306046,
                            -0.10622153431177139,
                            -0.28254422545433044
                        ],
                        [
                            -0.421117901802063,
                            -0.2531144917011261,
                            0.1519342064857483,
                            -0.10027042031288147,
                            -0.337765097618103,
                            -0.4412171244621277,
                            0.17871668934822083,
                            0.13450051844120026,
                            0.17780126631259918,
                            -0.4507690370082855,
                            0.29594388604164124,
                            0.24185693264007568,
                            -0.22892875969409943,
                            0.43142732977867126,
                            0.2613920271396637,
                            -0.2169717252254486
                        ],
                        [
                            0.6628201603889465,
                            0.17233778536319733,
                            -0.7353086471557617,
                            0.4782631993293762,
                            0.3059527575969696,
                            1.140380620956421,
                            -0.4825595021247864,
                            -0.36137160658836365,
                            -0.5721858143806458,
                            0.6052870750427246,
                            -0.29258573055267334,
                            -0.4758223295211792,
                            0.4840957820415497,
                            -0.7905510067939758,
                            -0.27002987265586853,
                            0.7485860586166382
                        ],
                        [
                            0.0668354406952858,
                            0.042614568024873734,
                            0.042477209120988846,
                            0.09795743972063065,
                            0.0493350625038147,
                            -0.10754936933517456,
                            0.1034783124923706,
                            -0.05691845342516899,
                            -0.05055118724703789,
                            0.011917982250452042,
                            0.11197740584611893,
                            0.079523965716362,
                            0.12457407265901566,
                            0.07222680747509003,
                            0.011923255398869514,
                            -0.16510799527168274
                        ],
                        [
                            0.6411476135253906,
                            -0.2261255830526352,
                            -1.2443900108337402,
                            0.4204534888267517,
                            0.18639308214187622,
                            1.3533469438552856,
                            -0.5669959783554077,
                            -0.5426148772239685,
                            -0.47832515835762024,
                            0.7206071019172668,
                            -0.3138267397880554,
                            -0.4759367108345032,
                            0.5053231120109558,
                            -0.9528607130050659,
                            -0.43014079332351685,
                            1.117728352546692
                        ],
                        [
                            0.03040327876806259,
                            0.3804475665092468,
                            0.337030827999115,
                            -0.021417729556560516,
                            0.5683531165122986,
                            -0.022170020267367363,
                            -0.1338035613298416,
                            -0.1447761356830597,
                            0.04051949828863144,
                            0.27933308482170105,
                            -0.10933155566453934,
                            0.009674698114395142,
                            0.14201846718788147,
                            0.009988995268940926,
                            -0.05304545536637306,
                            -0.05937614291906357
                        ],
                        [
                            0.1709267646074295,
                            -0.15371455252170563,
                            -0.3509579002857208,
                            0.24733786284923553,
                            0.06377054005861282,
                            0.5503880977630615,
                            -0.2854539453983307,
                            -0.3059499263763428,
                            -0.3108888566493988,
                            0.3995831310749054,
                            -0.260478675365448,
                            -0.2278929203748703,
                            0.24602125585079193,
                            -0.4428021013736725,
                            -0.2446623593568802,
                            0.43941643834114075
                        ],
                        [
                            -0.3209070861339569,
                            -0.05432221293449402,
                            0.06607641279697418,
                            -0.19874459505081177,
                            -0.32032784819602966,
                            -0.3499879837036133,
                            0.22379733622074127,
                            0.06802548468112946,
                            0.2510378658771515,
                            -0.38022223114967346,
                            0.12146410346031189,
                            0.27504029870033264,
                            -0.09250130504369736,
                            0.3934481739997864,
                            0.19677285850048065,
                            -0.2207333743572235
                        ],
                        [
                            -0.15503762662410736,
                            -0.16237691044807434,
                            0.17129044234752655,
                            -0.21425417065620422,
                            -0.17412802577018738,
                            -0.3956066071987152,
                            0.30097249150276184,
                            0.14176054298877716,
                            0.19113539159297943,
                            -0.1983502358198166,
                            0.17461331188678741,
                            0.15784886479377747,
                            -0.14406932890415192,
                            0.18007536232471466,
                            0.18364417552947998,
                            -0.3945458233356476
                        ],
                        [
                            0.22655223309993744,
                            -0.049469489604234695,
                            -0.3216281533241272,
                            0.21097925305366516,
                            0.17451296746730804,
                            0.3999190330505371,
                            -0.258145809173584,
                            -0.24350003898143768,
                            -0.16989699006080627,
                            0.1177833303809166,
                            -0.19657723605632782,
                            -0.12777702510356903,
                            0.05592899024486542,
                            -0.15771080553531647,
                            -0.14521612226963043,
                            0.2124737650156021
                        ],
                        [
                            0.534808874130249,
                            0.31224027276039124,
                            -0.5003297328948975,
                            0.27352648973464966,
                            0.6596267819404602,
                            0.8668221831321716,
                            -0.4265597462654114,
                            -0.30056968331336975,
                            -0.3637950122356415,
                            0.6014821529388428,
                            -0.23009593784809113,
                            -0.25957807898521423,
                            0.36859774589538574,
                            -0.5444279909133911,
                            -0.3710997700691223,
                            0.805488109588623
                        ],
                        [
                            0.6683052182197571,
                            0.22562772035598755,
                            -0.7958071231842041,
                            0.253248929977417,
                            0.5753059387207031,
                            1.265213966369629,
                            -0.4417809247970581,
                            -0.2987159788608551,
                            -0.5346142649650574,
                            0.6127521395683289,
                            -0.4467235803604126,
                            -0.4248952865600586,
                            0.2654501795768738,
                            -0.7708932161331177,
                            -0.3330090343952179,
                            0.7385465502738953
                        ],
                        [
                            0.26548078656196594,
                            0.009796195663511753,
                            -0.3127319812774658,
                            0.09206195920705795,
                            0.23840023577213287,
                            0.4898901581764221,
                            -0.3581697940826416,
                            -0.23846988379955292,
                            -0.13690370321273804,
                            0.29239916801452637,
                            -0.09231927990913391,
                            -0.2747179865837097,
                            0.23162555694580078,
                            -0.4287966787815094,
                            -0.1423652470111847,
                            0.29780715703964233
                        ],
                        [
                            0.37527939677238464,
                            0.388912171125412,
                            -0.26668640971183777,
                            0.2771835923194885,
                            0.5388283133506775,
                            0.49599626660346985,
                            -0.404866486787796,
                            -0.24354223906993866,
                            -0.4561179578304291,
                            0.49496588110923767,
                            -0.36542433500289917,
                            -0.40226635336875916,
                            0.36079564690589905,
                            -0.4266943335533142,
                            -0.40456193685531616,
                            0.44452089071273804
                        ]
                    ],
                    [
                        [
                            0.16510380804538727,
                            -0.05682879686355591,
                            -0.2376841902732849,
                            -0.020850280299782753,
                            0.1117650717496872,
                            0.705295741558075,
                            -0.1928200125694275,
                            -0.19783538579940796,
                            -0.16821768879890442,
                            0.33549436926841736,
                            -0.06583508104085922,
                            -0.22202792763710022,
                            0.10376039147377014,
                            -0.2655680477619171,
                            -0.0205541905015707,
                            0.3286292552947998
                        ],
                        [
                            -0.06661586463451385,
                            0.013304432854056358,
                            0.17700731754302979,
                            0.04375427961349487,
                            0.13974645733833313,
                            -0.025540590286254883,
                            0.002044965513050556,
                            -0.06476125121116638,
                            0.09857490658760071,
                            0.03075539693236351,
                            -0.071314238011837,
                            0.015625057741999626,
                            -0.08111923187971115,
                            0.1578519493341446,
                            0.11560824513435364,
                            0.09344495087862015
                        ],
                        [
                            0.1620335727930069,
                            0.014864522032439709,
                            -0.14907486736774445,
                            -0.009015033021569252,
                            0.06771653890609741,
                            0.055916927754879,
                            -0.1257530152797699,
                            -0.06534098088741302,
                            -0.11414743959903717,
                            0.050392035394907,
                            0.002573119942098856,
                            0.008805982768535614,
                            0.011499367654323578,
                            -0.1944907158613205,
                            -0.14023105800151825,
                            0.016896985471248627
                        ],
                        [
                            0.42497628927230835,
                            0.20299594104290009,
                            -0.15774868428707123,
                            0.1381032019853592,
                            0.1324547827243805,
                            0.3823608160018921,
                            -0.1676338016986847,
                            -0.04042430967092514,
                            0.0003964748466387391,
                            0.18944792449474335,
                            -0.14706934988498688,
                            -0.2778931260108948,
                            0.1587468832731247,
                            -0.2823376953601837,
                            -0.21650859713554382,
                            0.3402822017669678
                        ],
                        [
                            -0.26667481660842896,
                            -0.14904148876667023,
                            0.4966595470905304,
                            -0.1613566279411316,
                            -0.14309093356132507,
                            -0.5047709345817566,
                            0.42522549629211426,
                            0.17700619995594025,
                            0.1426496058702469,
                            -0.26365527510643005,
                            0.1278492957353592,
                            0.47520774602890015,
                            -0.22020550072193146,
                            0.32050323486328125,
                            0.16613119840621948,
                            -0.35715150833129883
                        ],
                        [
                            0.14534986019134521,
                            0.14960189163684845,
                            -0.10126271098852158,
                            0.10617951303720474,
                            -0.043178729712963104,
                            0.1478554904460907,
                            0.062138352543115616,
                            -0.04807225614786148,
                            0.04394727572798729,
                            0.06756928563117981,
                            -0.016572000458836555,
                            0.03355327993631363,
                            0.008760728873312473,
                            -0.15913192927837372,
                            0.08340829610824585,
                            0.17747735977172852
                        ],
                        [
                            0.0014715043362230062,
                            0.07680625468492508,
                            0.10583604872226715,
                            -0.16172181069850922,
                            -0.1346067637205124,
                            -0.1604226529598236,
                            0.1983429193496704,
                            0.07628722488880157,
                            0.08204536885023117,
                            -0.015864409506320953,
                            0.13216331601142883,
                            0.1412975937128067,
                            0.005147304851561785,
                            0.22640541195869446,
                            0.14484921097755432,
                            -0.201390340924263
                        ],
                        [
                            -0.0860658586025238,
                            0.11164293438196182,
                            -0.15209290385246277,
                            0.053829483687877655,
                            -0.030803978443145752,
                            -0.12976454198360443,
                            -0.09107764810323715,
                            0.0688316747546196,
                            0.01854631118476391,
                            -0.06321047991514206,
                            0.04301014915108681,
                            0.05373072251677513,
                            -0.026346733793616295,
                            -0.011410044506192207,
                            -0.021943852305412292,
                            0.04325238987803459
                        ],
                        [
                            -0.322804719209671,
                            -0.040932122617959976,
                            0.18206001818180084,
                            -0.15951013565063477,
                            -0.08033864945173264,
                            -0.31171831488609314,
                            0.22807547450065613,
                            0.21694080531597137,
                            0.05877995491027832,
                            -0.27558162808418274,
                            0.18784721195697784,
                            0.3405861556529999,
                            -0.20275546610355377,
                            0.2390674352645874,
                            0.09885575622320175,
                            -0.35538342595100403
                        ],
                        [
                            0.15587975084781647,
                            0.18503035604953766,
                            -0.18927745521068573,
                            0.007260059006512165,
                            0.1445578932762146,
                            0.2885787785053253,
                            -0.014597183093428612,
                            0.030723100528120995,
                            0.005873588845133781,
                            0.20714497566223145,
                            -0.06406516581773758,
                            -0.2120313048362732,
                            0.0266809593886137,
                            -0.2705351412296295,
                            -0.09149236232042313,
                            0.2707805633544922
                        ],
                        [
                            0.28841984272003174,
                            0.16968102753162384,
                            -0.10074087232351303,
                            0.0638246089220047,
                            0.08230740576982498,
                            0.12858067452907562,
                            -0.19797475636005402,
                            -0.06336308270692825,
                            -0.03674770146608353,
                            0.2084854245185852,
                            0.03287213668227196,
                            -0.1994469165802002,
                            0.05913691222667694,
                            -0.1404162347316742,
                            -0.11919719725847244,
                            0.07165658473968506
                        ],
                        [
                            -0.10012998431921005,
                            -0.03961107134819031,
                            0.0037584430538117886,
                            -0.18000204861164093,
                            0.03912747651338577,
                            -0.4128250479698181,
                            0.16795217990875244,
                            0.21995271742343903,
                            0.04059969261288643,
                            -0.27427393198013306,
                            0.03011108748614788,
                            0.10601801425218582,
                            -0.17324213683605194,
                            0.08169697225093842,
                            0.1321878284215927,
                            -0.3018050193786621
                        ],
                        [
                            -0.2982403039932251,
                            -0.06699797511100769,
                            0.29305320978164673,
                            -0.03076372854411602,
                            -0.2724921703338623,
                            -0.5037785172462463,
                            0.3046019673347473,
                            0.26230016350746155,
                            0.1814975142478943,
                            -0.39941608905792236,
                            0.13413135707378387,
                            0.26923975348472595,
                            -0.25295791029930115,
                            0.4251355528831482,
                            0.1587246209383011,
                            -0.3918130099773407
                        ],
                        [
                            -0.38776037096977234,
                            -0.24108092486858368,
                            0.669964075088501,
                            -0.028630688786506653,
                            -0.3739960193634033,
                            -0.9009928107261658,
                            0.3682604134082794,
                            0.1754755675792694,
                            0.14403584599494934,
                            -0.3798142373561859,
                            0.08759556710720062,
                            0.43531274795532227,
                            -0.1893559694290161,
                            0.3466096520423889,
                            0.3230569660663605,
                            -0.4862079322338104
                        ],
                        [
                            -0.13676029443740845,
                            -0.0019562598317861557,
                            0.16845564544200897,
                            0.07158638536930084,
                            0.0072798882611095905,
                            -0.19049571454524994,
                            0.04462669417262077,
                            0.07919951528310776,
                            0.06960928440093994,
                            -0.1450548619031906,
                            0.18829013407230377,
                            0.02108593098819256,
                            -0.10567137598991394,
                            0.18847256898880005,
                            -0.030079754069447517,
                            -0.22401466965675354
                        ],
                        [
                            -0.6233239769935608,
                            -0.23471759259700775,
                            0.3787335455417633,
                            -0.26453110575675964,
                            -0.3036607801914215,
                            -0.6065751910209656,
                            0.6873763203620911,
                            0.4580657184123993,
                            0.18058878183364868,
                            -0.5548903942108154,
                            0.3715161085128784,
                            0.4930506646633148,
                            -0.555506706237793,
                            0.5409356951713562,
                            0.3896164298057556,
                            -0.3642355501651764
                        ]
                    ],
                    [
                        [
                            -0.047263093292713165,
                            -0.11336307972669601,
                            0.14852678775787354,
                            0.049090977758169174,
                            -0.0644189715385437,
                            0.16449934244155884,
                            -0.015571385622024536,
                            -0.04457566514611244,
                            -0.058385055512189865,
                            0.08053924888372421,
                            0.061630018055438995,
                            0.09330468624830246,
                            -0.043978001922369,
                            0.025646179914474487,
                            -0.05297626182436943,
                            0.03216053172945976
                        ],
                        [
                            -0.000496709777507931,
                            0.07276933640241623,
                            0.012823808006942272,
                            -0.060976747423410416,
                            0.24555200338363647,
                            0.025198545306921005,
                            -0.08344946056604385,
                            0.020450862124562263,
                            -0.03136756271123886,
                            0.07177631556987762,
                            0.003188203787431121,
                            0.019542546942830086,
                            -0.005673766136169434,
                            -0.002197813242673874,
                            -0.061146657913923264,
                            0.0032899160869419575
                        ],
                        [
                            0.14483778178691864,
                            0.03910808265209198,
                            0.23609568178653717,
                            0.03397952392697334,
                            -0.10775598883628845,
                            0.09392337501049042,
                            -0.05181776359677315,
                            -0.08503308147192001,
                            0.1259983479976654,
                            -0.019298860803246498,
                            -0.1033623218536377,
                            -0.024058660492300987,
                            0.017963819205760956,
                            0.007704652845859528,
                            0.06556989252567291,
                            0.07220302522182465
                        ],
                        [
                            0.08690562844276428,
                            0.08546815812587738,
                            0.013415501452982426,
                            -0.03195589780807495,
                            -0.10448028147220612,
                            0.010448244400322437,
                            0.01842012256383896,
                            0.0790959969162941,
                            0.10979513078927994,
                            -0.02805572748184204,
                            -0.09079056978225708,
                            -0.010816909372806549,
                            -0.11966989189386368,
                            0.022603081539273262,
                            -0.0577678456902504,
                            -0.05677815526723862
                        ],
                        [
                            -0.046207133680582047,
                            0.12241066992282867,
                            0.0479402132332325,
                            -0.04173356294631958,
                            -0.04880247265100479,
                            0.0028286161832511425,
                            -0.05948883295059204,
                            -0.017015598714351654,
                            0.033590175211429596,
                            0.03232264146208763,
                            0.05600925162434578,
                            -0.07561565935611725,
                            -0.0032011992298066616,
                            -0.007820705883204937,
                            -0.09781523793935776,
                            0.08737853169441223
                        ],
                        [
                            0.057096436619758606,
                            0.05481724068522453,
                            0.11265401542186737,
                            -0.014353930950164795,
                            -0.055492643266916275,
                            0.0662580356001854,
                            -0.0594220831990242,
                            0.08127674460411072,
                            0.05371960997581482,
                            0.014307310804724693,
                            -0.055045124143362045,
                            0.11448335647583008,
                            -0.043626949191093445,
                            0.050134189426898956,
                            -0.024683598428964615,
                            -0.1138487458229065
                        ],
                        [
                            -0.18662668764591217,
                            0.16365225613117218,
                            0.07918502390384674,
                            -0.08333560824394226,
                            0.08864083141088486,
                            0.09200988709926605,
                            0.004664714448153973,
                            0.1710146963596344,
                            0.12336674332618713,
                            -0.24269534647464752,
                            0.052943289279937744,
                            -0.03152105212211609,
                            0.0414661206305027,
                            0.1873827576637268,
                            0.16115829348564148,
                            -0.04691607132554054
                        ],
                        [
                            0.0272840466350317,
                            -0.057572945952415466,
                            -0.12498664855957031,
                            0.13101907074451447,
                            0.05074726790189743,
                            0.07501177489757538,
                            0.03861944377422333,
                            -0.11656006425619125,
                            0.03537093475461006,
                            0.1490931659936905,
                            0.0023002068046480417,
                            -0.10152619332075119,
                            0.0030439593829214573,
                            -0.06177070364356041,
                            0.045386746525764465,
                            0.18535397946834564
                        ],
                        [
                            -0.03731396049261093,
                            -0.004449184983968735,
                            0.10461127758026123,
                            -0.06526727974414825,
                            0.047717396169900894,
                            -0.2575024664402008,
                            0.1688634306192398,
                            -0.08275293558835983,
                            0.1220233142375946,
                            0.12236149609088898,
                            -0.05254669114947319,
                            -0.03950531408190727,
                            -0.09520614892244339,
                            -0.019620457664132118,
                            -0.01772754266858101,
                            -0.019278384745121002
                        ],
                        [
                            0.1073719710111618,
                            0.11263997852802277,
                            -0.04209361597895622,
                            0.08305586874485016,
                            0.0565401054918766,
                            0.11889107525348663,
                            0.07314077764749527,
                            0.0650947093963623,
                            0.08130661398172379,
                            -0.03824624791741371,
                            0.03841337189078331,
                            -0.09482845664024353,
                            -0.050175946205854416,
                            0.11120934784412384,
                            0.055898524820804596,
                            0.11255807429552078
                        ],
                        [
                            0.020748095586895943,
                            0.09181559085845947,
                            -0.013806113041937351,
                            -0.05315907299518585,
                            0.09144355356693268,
                            -0.004011832177639008,
                            0.014997156336903572,
                            -0.04040873423218727,
                            -0.06309140473604202,
                            -0.08021461963653564,
                            -0.10774173587560654,
                            -0.06588613986968994,
                            0.12105010449886322,
                            0.1048571988940239,
                            0.10221406072378159,
                            0.09418391436338425
                        ],
                        [
                            -0.1492643654346466,
                            0.04658922925591469,
                            0.014865461736917496,
                            -0.07580813765525818,
                            -0.07615352421998978,
                            -0.16614976525306702,
                            0.035209499299526215,
                            0.08362217247486115,
                            -0.12264952808618546,
                            -0.07886163890361786,
                            0.09739243239164352,
                            0.16624191403388977,
                            -0.0540613979101181,
                            0.08002661913633347,
                            0.06605212390422821,
                            -0.1775633990764618
                        ],
                        [
                            -0.13946008682250977,
                            0.025954099372029305,
                            0.05582341179251671,
                            0.04862021654844284,
                            -0.15285798907279968,
                            0.08573654294013977,
                            -0.05745721608400345,
                            0.025317629799246788,
                            -0.1459379345178604,
                            -0.035885024815797806,
                            -0.054059259593486786,
                            0.014310747385025024,
                            -0.04338086396455765,
                            0.058220088481903076,
                            -0.10613146424293518,
                            -0.13632209599018097
                        ],
                        [
                            -0.12106087058782578,
                            0.03577490523457527,
                            0.13539086282253265,
                            -0.02762763574719429,
                            -0.12294061481952667,
                            -0.15519070625305176,
                            0.2933768928050995,
                            -0.09577373415231705,
                            0.0329173319041729,
                            -0.17209817469120026,
                            0.22841094434261322,
                            0.06558948010206223,
                            0.021502817049622536,
                            0.14430223405361176,
                            0.10544033348560333,
                            -0.1759520024061203
                        ],
                        [
                            -0.007027893327176571,
                            0.052708741277456284,
                            0.03610747307538986,
                            0.13879702985286713,
                            0.09781870245933533,
                            0.06065807864069939,
                            0.11287015676498413,
                            -0.08981716632843018,
                            -0.12381532043218613,
                            0.02834266796708107,
                            -0.054798949509859085,
                            -0.11983110755681992,
                            -0.009237170219421387,
                            -0.18311093747615814,
                            0.03263763710856438,
                            0.009165657684206963
                        ],
                        [
                            -0.17196883261203766,
                            -0.018209097906947136,
                            0.1794658750295639,
                            0.1369314193725586,
                            -0.11275728046894073,
                            -0.16370397806167603,
                            0.23959538340568542,
                            0.02775135636329651,
                            0.05979328975081444,
                            0.02009127289056778,
                            0.04888254776597023,
                            -0.007638366427272558,
                            -0.15247394144535065,
                            -0.06184772402048111,
                            0.13186736404895782,
                            -0.07825510203838348
                        ]
                    ],
                    [
                        [
                            -0.11280816048383713,
                            -0.05474569648504257,
                            0.15879040956497192,
                            -0.06559217721223831,
                            -0.11391229182481766,
                            -0.1432429999113083,
                            0.09140081703662872,
                            -0.022650331258773804,
                            -0.04935295507311821,
                            -0.10716429352760315,
                            0.024032652378082275,
                            0.00939845945686102,
                            0.10266897827386856,
                            -0.11933556199073792,
                            0.06294555217027664,
                            -0.1292872279882431
                        ],
                        [
                            -0.09948897361755371,
                            0.16326013207435608,
                            0.016793319955468178,
                            -0.01685967482626438,
                            0.09767147898674011,
                            0.02404545433819294,
                            -0.07428957521915436,
                            0.08914953470230103,
                            0.03557116165757179,
                            -0.022175351157784462,
                            0.12000895291566849,
                            0.07114487886428833,
                            0.08875042200088501,
                            0.0784212201833725,
                            -0.03935949131846428,
                            0.15100806951522827
                        ],
                        [
                            -0.05126422271132469,
                            0.06959745287895203,
                            0.22610929608345032,
                            -0.12969659268856049,
                            -0.1327592432498932,
                            -0.10919377207756042,
                            0.0760868489742279,
                            0.041014447808265686,
                            0.09864655882120132,
                            -0.2572844624519348,
                            0.12113770842552185,
                            0.08162972331047058,
                            -0.10439644008874893,
                            0.11568575352430344,
                            0.08884408324956894,
                            0.02808850072324276
                        ],
                        [
                            0.07471537590026855,
                            0.17617425322532654,
                            0.14222510159015656,
                            -0.13052113354206085,
                            -0.07995656877756119,
                            0.0938754603266716,
                            0.06513280421495438,
                            0.08565445989370346,
                            0.05624972656369209,
                            -0.09671331197023392,
                            -0.06165989860892296,
                            0.03686021640896797,
                            0.10632704943418503,
                            0.07044047117233276,
                            0.04141433164477348,
                            -0.1453743278980255
                        ],
                        [
                            0.03446482867002487,
                            0.0024129620287567377,
                            -0.11472464352846146,
                            0.13333475589752197,
                            0.11327916383743286,
                            0.009335408918559551,
                            -0.039005644619464874,
                            -0.0038205094169825315,
                            -0.061055876314640045,
                            0.11820957064628601,
                            0.08220890909433365,
                            -0.017294054850935936,
                            -0.05205759033560753,
                            0.19483277201652527,
                            -0.11685222387313843,
                            0.1607535034418106
                        ],
                        [
                            0.09495658427476883,
                            -0.04178434610366821,
                            -0.03327206149697304,
                            -0.0768531933426857,
                            -0.10395890474319458,
                            -0.05270875245332718,
                            -0.010853640735149384,
                            -0.0010633158963173628,
                            0.005348769016563892,
                            -0.17995382845401764,
                            -0.04443468526005745,
                            0.10082651674747467,
                            0.09791040420532227,
                            0.09142673760652542,
                            0.013676980510354042,
                            -0.07157593965530396
                        ],
                        [
                            -0.033260948956012726,
                            -0.03037472441792488,
                            -0.031696099787950516,
                            -0.2715141773223877,
                            -0.03200225159525871,
                            0.1297687143087387,
                            -0.035049356520175934,
                            0.0772111564874649,
                            0.28398025035858154,
                            -0.2245655506849289,
                            0.21552886068820953,
                            -0.10332265496253967,
                            -0.21125639975070953,
                            0.21586501598358154,
                            0.11299770325422287,
                            0.04168114438652992
                        ],
                        [
                            -0.05622454360127449,
                            0.13559047877788544,
                            -0.13103751838207245,
                            0.11326084285974503,
                            0.0709393322467804,
                            -0.05676249787211418,
                            0.019377756863832474,
                            -0.08788588643074036,
                            0.020764073356986046,
                            0.10198614746332169,
                            0.12170268595218658,
                            0.020988211035728455,
                            -0.04694494977593422,
                            0.019803188741207123,
                            0.03254690766334534,
                            0.1954340934753418
                        ],
                        [
                            -0.10678461194038391,
                            0.003719498636201024,
                            -0.02632797881960869,
                            0.1827811300754547,
                            -0.06059182807803154,
                            -0.19514048099517822,
                            0.13624781370162964,
                            -0.04182548075914383,
                            -0.10791762918233871,
                            0.13487467169761658,
                            -0.04459095373749733,
                            0.07100315392017365,
                            -0.07818327099084854,
                            -0.13336926698684692,
                            -0.019232045859098434,
                            -0.09751534461975098
                        ],
                        [
                            0.1518503874540329,
                            0.0866185799241066,
                            0.044619567692279816,
                            -0.15149986743927002,
                            -0.04848571494221687,
                            0.1390818953514099,
                            0.12325029075145721,
                            0.0816599652171135,
                            -0.052495233714580536,
                            -0.06381826102733612,
                            0.14087042212486267,
                            -0.08630986511707306,
                            0.09209895133972168,
                            0.13702936470508575,
                            0.015660470351576805,
                            -0.06124553829431534
                        ],
                        [
                            0.06842509657144547,
                            -0.05010552704334259,
                            0.03364306688308716,
                            0.005472238175570965,
                            0.060475025326013565,
                            -0.08492787927389145,
                            -0.10093957185745239,
                            -0.03665163367986679,
                            0.1665814220905304,
                            0.01897161453962326,
                            0.13204564154148102,
                            0.15710297226905823,
                            0.12051849812269211,
                            0.05363951995968819,
                            0.13654908537864685,
                            0.0491105318069458
                        ],
                        [
                            -0.2143712043762207,
                            0.05658605322241783,
                            0.04378170520067215,
                            -0.036891356110572815,
                            0.0808962732553482,
                            -0.2728688418865204,
                            0.008868750184774399,
                            -0.09991247206926346,
                            -0.12060684710741043,
                            0.02485240064561367,
                            -0.03649108484387398,
                            -0.06435304135084152,
                            -0.12781184911727905,
                            -0.02665034681558609,
                            0.004509332589805126,
                            -0.16071951389312744
                        ],
                        [
                            -0.04288973659276962,
                            -0.03776933252811432,
                            -0.15042662620544434,
                            0.17372147738933563,
                            0.07684951275587082,
                            0.18372251093387604,
                            -0.09069385379552841,
                            -0.13120616972446442,
                            -0.08775495737791061,
                            0.06097254529595375,
                            -0.03676654025912285,
                            -0.1119367703795433,
                            0.10971497744321823,
                            0.0014870475279167295,
                            -0.003091942984610796,
                            0.2106764018535614
                        ],
                        [
                            -0.13280431926250458,
                            0.09422826766967773,
                            -0.008057178929448128,
                            0.035342901945114136,
                            -0.005783368833363056,
                            0.06086678057909012,
                            -0.06893373280763626,
                            -0.04461398348212242,
                            0.0037841456942260265,
                            -0.05902181938290596,
                            0.03186054900288582,
                            -0.00035728109651245177,
                            -0.0932161957025528,
                            0.05029449611902237,
                            0.0723598450422287,
                            -0.02797955647110939
                        ],
                        [
                            -0.16075068712234497,
                            0.00550119811668992,
                            -0.047118205577135086,
                            0.1978897750377655,
                            0.045865800231695175,
                            0.15052609145641327,
                            -0.04010530188679695,
                            -0.09658332169055939,
                            0.03243648633360863,
                            0.17632298171520233,
                            0.09625706821680069,
                            -0.016030363738536835,
                            0.06129467114806175,
                            0.07367528229951859,
                            0.02820717729628086,
                            0.049369845539331436
                        ],
                        [
                            -0.08588869124650955,
                            -0.16452656686306,
                            0.09246204793453217,
                            0.1790824681520462,
                            -0.14671391248703003,
                            0.042496081441640854,
                            0.10166260600090027,
                            -0.0020570452325046062,
                            -0.13052058219909668,
                            -0.026249077171087265,
                            0.013076936826109886,
                            -0.0733063668012619,
                            0.025789175182580948,
                            0.007241933606564999,
                            0.029277624562382698,
                            -0.1380993276834488
                        ]
                    ],
                    [
                        [
                            -0.1244988739490509,
                            0.015427455306053162,
                            0.1582135111093521,
                            -0.13513042032718658,
                            -0.12534578144550323,
                            -0.21601586043834686,
                            0.16653376817703247,
                            -0.00568038783967495,
                            -0.058899667114019394,
                            -0.14837200939655304,
                            0.08694133907556534,
                            0.14538925886154175,
                            -0.13728831708431244,
                            -0.035157881677150726,
                            0.1405191421508789,
                            -0.29286691546440125
                        ],
                        [
                            0.0908639132976532,
                            0.05715980753302574,
                            -0.17565223574638367,
                            -0.04832354560494423,
                            0.15562985837459564,
                            -0.03829833120107651,
                            -0.1013176217675209,
                            -0.04483303055167198,
                            0.024084465578198433,
                            0.04687012359499931,
                            0.00832430925220251,
                            0.05434225872159004,
                            -0.0489991158246994,
                            -0.026644831523299217,
                            -0.045933619141578674,
                            -0.02427101507782936
                        ],
                        [
                            0.05322226509451866,
                            -0.005565301515161991,
                            0.0675409659743309,
                            -0.1374666392803192,
                            -0.06999427825212479,
                            -0.0724136158823967,
                            0.17658032476902008,
                            -0.07348231971263885,
                            0.005434649996459484,
                            -0.010890754871070385,
                            0.19331784546375275,
                            0.022227397188544273,
                            0.03766642510890961,
                            0.008246393874287605,
                            0.06431049108505249,
                            -0.08727403730154037
                        ],
                        [
                            0.11710336059331894,
                            -0.08164297044277191,
                            -0.03237803280353546,
                            -0.03144014999270439,
                            -0.09831929206848145,
                            -0.11072991788387299,
                            0.15626579523086548,
                            0.03111277148127556,
                            -0.08609312027692795,
                            -0.17481352388858795,
                            0.07352107018232346,
                            0.08988379687070847,
                            0.12061929702758789,
                            0.01925412006676197,
                            0.026332540437579155,
                            -0.28406795859336853
                        ],
                        [
                            -0.0815456286072731,
                            -0.11552175134420395,
                            -0.21217554807662964,
                            0.22781294584274292,
                            0.08069425076246262,
                            -0.0064889779314398766,
                            -0.10937045514583588,
                            -0.26052477955818176,
                            -0.19253438711166382,
                            0.14465861022472382,
                            -0.11847637593746185,
                            0.049850884824991226,
                            0.1627276986837387,
                            0.07166079431772232,
                            0.007411973085254431,
                            0.08882208168506622
                        ],
                        [
                            0.09942939877510071,
                            -0.05657096207141876,
                            -0.08159080892801285,
                            0.0068177878856658936,
                            0.062143899500370026,
                            0.0017800412606447935,
                            0.04231917858123779,
                            -0.014087529852986336,
                            0.011706486344337463,
                            -0.13090412318706512,
                            0.18615292012691498,
                            0.004506623838096857,
                            -0.017170576378703117,
                            0.20465868711471558,
                            0.12449616193771362,
                            -0.2900627553462982
                        ],
                        [
                            0.046622972935438156,
                            0.023573167622089386,
                            -0.020017215982079506,
                            0.07399244606494904,
                            0.046533528715372086,
                            0.05583886429667473,
                            0.029390905052423477,
                            -0.033039823174476624,
                            -0.014148777350783348,
                            0.007686315104365349,
                            0.08939686417579651,
                            0.06894508004188538,
                            0.011922716163098812,
                            0.049957260489463806,
                            -0.12335609644651413,
                            -0.1228770762681961
                        ],
                        [
                            -0.06731793284416199,
                            -0.028896261006593704,
                            -0.27645617723464966,
                            0.007329510524868965,
                            0.1443157196044922,
                            -0.06842011958360672,
                            -0.08135293424129486,
                            -0.060968704521656036,
                            -0.017173027619719505,
                            -0.05325145646929741,
                            -0.09229504317045212,
                            -0.03393428772687912,
                            0.10583529621362686,
                            0.13203124701976776,
                            -0.07738281041383743,
                            0.014140062965452671
                        ],
                        [
                            0.0017194560496136546,
                            -0.0635184720158577,
                            0.1618579775094986,
                            0.14376720786094666,
                            0.024989068508148193,
                            0.07726608961820602,
                            0.05606658384203911,
                            -0.002968851011246443,
                            0.16910028457641602,
                            0.0029817475005984306,
                            0.018162228167057037,
                            0.05259871482849121,
                            -0.0798836424946785,
                            -0.008131831884384155,
                            0.10127367079257965,
                            -0.022408220916986465
                        ],
                        [
                            0.1593758463859558,
                            -0.11392124742269516,
                            -0.08825203776359558,
                            -0.09904848039150238,
                            -0.09489613026380539,
                            -0.009115234017372131,
                            -0.007971842773258686,
                            -0.10050822049379349,
                            -0.1178496852517128,
                            -0.06458088010549545,
                            0.12344334274530411,
                            -0.09838461875915527,
                            0.02108236961066723,
                            -0.009990581311285496,
                            -0.08862042427062988,
                            -0.014125829562544823
                        ],
                        [
                            -0.0503268800675869,
                            -0.09915092587471008,
                            -0.1583460122346878,
                            -0.010138126090168953,
                            0.012169367633759975,
                            -0.03236980363726616,
                            -0.027033792808651924,
                            0.00040976854506880045,
                            -0.008330391719937325,
                            -0.06627029180526733,
                            -0.0708673745393753,
                            -0.06199648603796959,
                            -0.06033410131931305,
                            0.1475881040096283,
                            0.06530597060918808,
                            -0.04871601611375809
                        ],
                        [
                            -0.08700815588235855,
                            -0.08527024835348129,
                            0.11834157258272171,
                            -0.00448554428294301,
                            0.06248332932591438,
                            0.1153794452548027,
                            -0.09467220306396484,
                            0.10676424205303192,
                            -0.009136290289461613,
                            -0.017402855679392815,
                            -0.0799441710114479,
                            -0.044789258390665054,
                            -0.07291574031114578,
                            -0.14743854105472565,
                            -0.034403588622808456,
                            0.11889636516571045
                        ],
                        [
                            0.04890969395637512,
                            0.05329784005880356,
                            -0.14443311095237732,
                            0.041156213730573654,
                            0.1629917323589325,
                            0.1782003492116928,
                            -0.10890186578035355,
                            -0.15475404262542725,
                            -0.10889504849910736,
                            0.10901489108800888,
                            -0.11712539196014404,
                            0.06234787032008171,
                            0.09327123314142227,
                            -0.08346045017242432,
                            -0.002621666993945837,
                            0.20428675413131714
                        ],
                        [
                            -0.12541626393795013,
                            0.14704695343971252,
                            -0.24506016075611115,
                            0.13700756430625916,
                            0.06154197081923485,
                            -0.016743408516049385,
                            -0.09231806546449661,
                            0.03340559080243111,
                            -0.08319909125566483,
                            -0.012531700544059277,
                            0.15141737461090088,
                            0.08019661903381348,
                            0.004133257549256086,
                            -0.02158420719206333,
                            -0.035575781017541885,
                            0.022786274552345276
                        ],
                        [
                            -0.1547149121761322,
                            0.10451163351535797,
                            -0.00031378603307530284,
                            0.012768029235303402,
                            -0.11344882845878601,
                            0.13179004192352295,
                            -0.01997087337076664,
                            -0.07978653907775879,
                            0.053667813539505005,
                            0.04938504099845886,
                            -0.1517614722251892,
                            -0.000606781744863838,
                            0.04716762527823448,
                            0.014014181680977345,
                            0.05517636984586716,
                            0.18717065453529358
                        ],
                        [
                            -0.27856895327568054,
                            0.049403510987758636,
                            -0.006107726134359837,
                            0.18871919810771942,
                            -0.015518959611654282,
                            -0.055661823600530624,
                            0.036519818007946014,
                            -0.053509943187236786,
                            -0.03849243372678757,
                            -0.04961176961660385,
                            -0.03295794129371643,
                            0.01868487149477005,
                            -0.1311565637588501,
                            0.027187611907720566,
                            -0.08507902920246124,
                            0.167924702167511
                        ]
                    ],
                    [
                        [
                            0.08176769316196442,
                            -0.09417660534381866,
                            -0.030891280621290207,
                            0.025153759866952896,
                            -0.07962608337402344,
                            0.09161313623189926,
                            0.2023157924413681,
                            -0.0749223381280899,
                            0.07578037679195404,
                            -0.18001021444797516,
                            0.0534699521958828,
                            -0.12133226543664932,
                            -0.030332578346133232,
                            0.10029254108667374,
                            0.09496548771858215,
                            -0.167860209941864
                        ],
                        [
                            -0.02926766313612461,
                            0.0475672148168087,
                            -0.0034499666653573513,
                            0.03451579436659813,
                            0.119720458984375,
                            -0.03345324471592903,
                            -0.05815370753407478,
                            0.028389284387230873,
                            -0.0552084781229496,
                            0.0024784267880022526,
                            -0.06863579154014587,
                            0.03560446947813034,
                            0.05887876823544502,
                            0.03975030779838562,
                            -0.09115421772003174,
                            0.05082520842552185
                        ],
                        [
                            -0.11291372776031494,
                            -0.08861178904771805,
                            0.097550168633461,
                            -0.01664930023252964,
                            0.015540470369160175,
                            -0.01732274517416954,
                            0.1942683607339859,
                            -0.11690638959407806,
                            -0.017231261357665062,
                            0.01755257323384285,
                            0.12321746349334717,
                            0.06062272563576698,
                            -0.04048417508602142,
                            -0.043248098343610764,
                            -0.0322655513882637,
                            -0.08371389657258987
                        ],
                        [
                            0.1308586448431015,
                            0.12998853623867035,
                            -0.07799234241247177,
                            0.005791502073407173,
                            0.12740729749202728,
                            0.1388130933046341,
                            -0.0668426975607872,
                            -0.07193507999181747,
                            -0.07252117991447449,
                            -0.09508024901151657,
                            0.039183951914310455,
                            -0.10872587561607361,
                            0.05383845791220665,
                            0.0742558166384697,
                            -0.05703485757112503,
                            -0.04377342760562897
                        ],
                        [
                            -0.09460306167602539,
                            -0.05989404395222664,
                            0.09506212174892426,
                            0.10374118387699127,
                            -0.058552514761686325,
                            -0.0749008059501648,
                            0.020777681842446327,
                            0.028328193351626396,
                            0.11602752655744553,
                            -0.09956612437963486,
                            -0.13136343657970428,
                            0.01982593722641468,
                            -0.12430229038000107,
                            0.12957236170768738,
                            -0.04544694349169731,
                            0.12595348060131073
                        ],
                        [
                            0.09716425091028214,
                            0.0014185504987835884,
                            0.029876958578824997,
                            0.08028598874807358,
                            0.001820218050852418,
                            -0.06707589328289032,
                            0.039203472435474396,
                            -0.03382986783981323,
                            -0.04540278762578964,
                            -0.07555025815963745,
                            0.13542528450489044,
                            -0.022280452772974968,
                            0.04532982409000397,
                            0.038961924612522125,
                            0.17408235371112823,
                            -0.03777973726391792
                        ],
                        [
                            -0.1690041422843933,
                            -0.028165213763713837,
                            -0.03653404861688614,
                            0.10611236840486526,
                            0.05028022453188896,
                            0.08909788727760315,
                            0.07731537520885468,
                            0.036721695214509964,
                            0.08797458559274673,
                            -0.04092690721154213,
                            -0.060804810374975204,
                            0.06121353060007095,
                            0.07150374352931976,
                            -0.036801863461732864,
                            0.03931957483291626,
                            0.19553209841251373
                        ],
                        [
                            -0.1516924500465393,
                            0.15294961631298065,
                            -0.04876700043678284,
                            0.13930919766426086,
                            0.022538773715496063,
                            -0.021077226847410202,
                            0.07094923406839371,
                            0.07797438651323318,
                            -0.0614890418946743,
                            -0.04787364974617958,
