{
    "in_shape": [
        1,
        150,
        1
    ],
    "layers": [
        {
            "type": "unknown",
            "activation": "",
            "shape": [
                1,
                174,
                1
            ],
            "weights": []
        },
        {
            "type": "conv1d",
            "activation": "",
            "shape": [
                1,
                14,
                16
            ],
            "kernel_size": [
                12
            ],
            "dilation": [
                1
            ],
            "weights": [
                [
                    [
                        [
                            0.37967339158058167,
                            -0.5255598425865173,
                            -0.9706195592880249,
                            -0.10100185871124268,
                            -0.39905908703804016,
                            -0.7610013484954834,
                            0.16187649965286255,
                            0.15333989262580872,
                            0.35591962933540344,
                            -0.2988087236881256,
                            0.04286850988864899,
                            -0.8684995174407959,
                            -0.476185142993927,
                            0.10179705917835236,
                            0.08280052244663239,
                            0.26768583059310913
                        ]
                    ],
                    [
                        [
                            0.24538959562778473,
                            -0.8376311659812927,
                            -0.7247204780578613,
                            -0.15727268159389496,
                            0.007027252111583948,
                            -0.82015460729599,
                            0.10420624166727066,
                            0.22295692563056946,
                            0.07619535177946091,
                            -0.023584531620144844,
                            0.22025497257709503,
                            -0.8660396933555603,
                            -0.6756614446640015,
                            0.48019155859947205,
                            0.27751243114471436,
                            0.012366699986159801
                        ]
                    ],
                    [
                        [
                            0.49285823106765747,
                            -0.7023398876190186,
                            -0.5959212779998779,
                            0.18593989312648773,
                            0.05874362960457802,
                            -0.864717423915863,
                            0.11433199048042297,
                            0.09086158871650696,
                            -0.08441181480884552,
                            0.014743639156222343,
                            0.09573470801115036,
                            -0.8330422639846802,
                            -0.49501708149909973,
                            0.4001099169254303,
                            0.2452189177274704,
                            -0.21016985177993774
                        ]
                    ],
                    [
                        [
                            0.612726092338562,
                            -0.8475900888442993,
                            -0.4798760414123535,
                            0.3847465515136719,
                            0.427040159702301,
                            -0.8056550621986389,
                            0.3571091294288635,
                            -0.21402037143707275,
                            -0.08150188624858856,
                            0.19543983042240143,
                            0.3787469267845154,
                            -0.5727307200431824,
                            -0.5396636128425598,
                            0.7019339203834534,
                            0.4829576909542084,
                            -0.3597032427787781
                        ]
                    ],
                    [
                        [
                            0.5039129257202148,
                            -0.7296361327171326,
                            -0.6310831904411316,
                            0.5169903039932251,
                            0.8481425642967224,
                            -0.5947980880737305,
                            0.21041510999202728,
                            -0.3352920114994049,
                            -0.4597301483154297,
                            0.19096487760543823,
                            0.23857343196868896,
                            -0.7167891263961792,
                            -0.5209771990776062,
                            0.6071401834487915,
                            0.4129262864589691,
                            -0.25026968121528625
                        ]
                    ],
                    [
                        [
                            0.6951047778129578,
                            -0.5992778539657593,
                            -0.5624862909317017,
                            0.46444520354270935,
                            0.9688074588775635,
                            -0.542129397392273,
                            0.23682454228401184,
                            -0.40006914734840393,
                            -0.593563973903656,
                            0.24902401864528656,
                            0.27015990018844604,
                            -0.4428502917289734,
                            -0.6513296365737915,
                            0.31525561213493347,
                            0.3391844630241394,
                            -0.4387494921684265
                        ]
                    ],
                    [
                        [
                            0.44570615887641907,
                            0.014789956621825695,
                            0.23562800884246826,
                            0.1752922683954239,
                            0.050732310861349106,
                            0.001239262637682259,
                            0.1414378136396408,
                            -0.027363326400518417,
                            -0.0398990735411644,
                            0.09646197408437729,
                            0.45912978053092957,
                            -0.1019362360239029,
                            -0.3857710063457489,
                            -1.1378459930419922,
                            0.2333257794380188,
                            -0.22389891743659973
                        ]
                    ],
                    [
                        [
                            0.22775189578533173,
                            0.26736214756965637,
                            0.23339210450649261,
                            0.1594897210597992,
                            0.3697914779186249,
                            -0.12400360405445099,
                            0.32135894894599915,
                            -0.16745178401470184,
                            -0.3681095242500305,
                            0.1571349799633026,
                            0.40671345591545105,
                            -0.16499386727809906,
                            -0.2743068337440491,
                            -1.2006945610046387,
                            0.05054422467947006,
                            -0.16325320303440094
                        ]
                    ],
                    [
                        [
                            0.23651283979415894,
                            0.4523283839225769,
                            0.4305107295513153,
                            0.23201507329940796,
                            0.681158721446991,
                            -0.0939924418926239,
                            0.3799303472042084,
                            -0.07214607298374176,
                            -0.49231788516044617,
                            0.13725236058235168,
                            0.5832676887512207,
                            0.1461818367242813,
                            -0.16239626705646515,
                            -1.5227664709091187,
                            0.019056858494877815,
                            -0.3838931620121002
                        ]
                    ],
                    [
                        [
                            0.025630688294768333,
                            0.8772519826889038,
                            0.31891295313835144,
                            0.32463815808296204,
                            0.4912574589252472,
                            0.2747800946235657,
                            0.34699028730392456,
                            -0.32398152351379395,
                            -0.4049172103404999,
                            0.3916205167770386,
                            0.3794587552547455,
                            0.4478553235530853,
                            -0.19537681341171265,
                            -1.3753958940505981,
                            0.05002697557210922,
                            -0.20191755890846252
                        ]
                    ],
                    [
                        [
                            -0.20386932790279388,
                            1.0726202726364136,
                            0.7292451858520508,
                            0.06658349186182022,
                            0.3215384781360626,
                            0.5204024314880371,
                            0.16158868372440338,
                            -0.24021805822849274,
                            -0.1355019360780716,
                            0.4351084232330322,
                            0.23222941160202026,
                            0.605146050453186,
                            0.4146570563316345,
                            -1.4155222177505493,
                            0.14596007764339447,
                            -0.29918307065963745
                        ]
                    ],
                    [
                        [
                            -0.6735681891441345,
                            1.5446231365203857,
                            1.0735456943511963,
                            0.08387760818004608,
                            0.2628074288368225,
                            0.9700132608413696,
                            -0.045082565397024155,
                            -0.26141515374183655,
                            -0.2175406515598297,
                            0.16403885185718536,
                            0.11282984912395477,
                            0.9125421047210693,
                            0.7971168756484985,
                            -1.2654985189437866,
                            0.040418513119220734,
                            -0.06598956882953644
                        ]
                    ]
                ],
                [
                    -0.006391279865056276,
                    -0.007035505026578903,
                    0.0022824269253760576,
                    -0.013797593303024769,
                    -0.009649076499044895,
                    -0.004492312669754028,
                    -0.03466855362057686,
                    0.02955751121044159,
                    0.015624713152647018,
                    -0.009065940976142883,
                    -0.011403937824070454,
                    -0.00458040414378047,
                    0.03531336784362793,
                    0.0061399308033287525,
                    -0.02597835473716259,
                    0.02673674374818802
                ]
            ]
        },
        {
            "type": "unknown",
            "activation": "",
            "shape": [
                1,
                38,
                16
            ],
            "weights": []
        },
        {
            "type": "conv1d",
            "activation": "",
            "shape": [
                1,
                3,
                16
            ],
            "kernel_size": [
                12
            ],
            "dilation": [
                1
            ],
            "weights": [
                [
                    [
                        [
                            0.24289695918560028,
                            0.23291169106960297,
                            -0.3575640618801117,
                            -0.169297456741333,
                            -0.8175662159919739,
                            0.9561806917190552,
                            0.37094566226005554,
                            0.1493777334690094,
                            -0.36333978176116943,
                            0.4154222011566162,
                            -0.9197951555252075,
                            0.4542510509490967,
                            -0.24700422585010529,
                            -0.3027486205101013,
                            0.307882696390152,
                            -0.3230854868888855
                        ],
                        [
                            -0.5711691379547119,
                            -0.3410067856311798,
                            0.5252574682235718,
                            0.2025662511587143,
                            1.1386281251907349,
                            -2.0011322498321533,
                            0.45221415162086487,
                            -0.23504813015460968,
                            0.41737645864486694,
                            -1.1447981595993042,
                            -0.7187655568122864,
                            1.004753828048706,
                            0.1385800540447235,
                            0.46087488532066345,
                            -0.5227985382080078,
                            1.2256226539611816
                        ],
                        [
                            -0.6176096200942993,
                            -0.5456972122192383,
                            0.6197302341461182,
                            0.3373217284679413,
                            1.0792497396469116,
                            -1.5301777124404907,
                            0.008248535916209221,
                            -0.628208577632904,
                            0.5952349901199341,
                            -0.7839133739471436,
                            -0.3057968020439148,
                            0.7733073234558105,
                            0.2542951703071594,
                            0.5013134479522705,
                            -0.7677813768386841,
                            1.0570892095565796
                        ],
                        [
                            -0.1902509480714798,
                            -0.11577800661325455,
                            -0.08870697021484375,
                            0.1063137799501419,
                            -0.43596431612968445,
                            0.002402235521003604,
                            0.1787717491388321,
                            -0.16336387395858765,
                            0.1149442121386528,
                            0.0670725554227829,
                            -0.9263029098510742,
                            0.6802553534507751,
                            -0.03224724158644676,
                            -0.0492679663002491,
                            0.05244162678718567,
                            0.13048623502254486
                        ],
                        [
                            -0.23431898653507233,
                            -0.14721988141536713,
                            -0.057603538036346436,
                            0.0929030179977417,
                            -0.9437596201896667,
                            0.07474824041128159,
                            0.6818457841873169,
                            -0.2564937174320221,
                            0.036289047449827194,
                            0.07553035020828247,
                            -1.4878425598144531,
                            1.4051296710968018,
                            -0.028861697763204575,
                            -0.05551498755812645,
                            0.18500974774360657,
                            0.006962682120501995
                        ],
                        [
                            -0.547330915927887,
                            -0.4368370473384857,
                            0.4290177822113037,
                            0.3158392012119293,
                            1.220941424369812,
                            -1.1977992057800293,
                            -0.32038432359695435,
                            -0.5002070665359497,
                            0.5510275363922119,
                            -0.6384973526000977,
                            0.4238334894180298,
                            0.2279960811138153,
                            0.30261629819869995,
                            0.3332234025001526,
                            -0.5346664786338806,
                            0.6674461364746094
                        ],
                        [
                            0.0077620311640203,
                            0.07174752652645111,
                            0.061434123665094376,
                            0.10589656978845596,
                            -0.6421736478805542,
                            0.011823593638837337,
                            0.38868945837020874,
                            0.13704419136047363,
                            0.02781909704208374,
                            0.07025986164808273,
                            -0.845625638961792,
                            0.7358611226081848,
                            -0.08977172523736954,
                            -0.11814068257808685,
                            0.1692747175693512,
                            0.04419122263789177
                        ],
                        [
                            0.16863895952701569,
                            0.17053669691085815,
                            -0.17942291498184204,
                            -0.11512390524148941,
                            0.1293259710073471,
                            0.21958275139331818,
                            -0.2268000841140747,
                            0.23150481283664703,
                            -0.20279264450073242,
                            0.17192204296588898,
                            0.7662404179573059,
                            -0.6387713551521301,
                            -0.18186846375465393,
                            -0.06402605772018433,
                            0.09431031346321106,
                            -0.15575702488422394
                        ],
                        [
                            0.13344155251979828,
                            0.07910902798175812,
                            0.04558521881699562,
                            -0.23995089530944824,
                            0.3506668508052826,
                            0.01635662093758583,
                            -0.34103986620903015,
                            0.2288656234741211,
                            -0.0844045877456665,
                            0.011727974750101566,
                            1.0363099575042725,
                            -0.9883102774620056,
                            -0.14236879348754883,
                            0.09134902060031891,
                            -0.009177828207612038,
                            -0.16254451870918274
                        ],
                        [
                            -0.08808527886867523,
                            -0.21835242211818695,
                            0.22524712979793549,
                            0.2637253999710083,
                            -0.1860293298959732,
                            -0.1621912717819214,
                            0.34830722212791443,
                            -0.14275632798671722,
                            0.1163458600640297,
                            -0.031084468588232994,
                            -1.1646214723587036,
                            0.8409395813941956,
                            0.15587830543518066,
                            -0.013243697583675385,
                            0.0027368240989744663,
                            0.27103880047798157
                        ],
                        [
                            -0.03884880989789963,
                            -0.013804402202367783,
                            0.013259798288345337,
                            0.21546785533428192,
                            -0.7728185057640076,
                            -0.004315540660172701,
                            0.5570624470710754,
                            -0.046651605516672134,
                            0.03405164182186127,
                            0.067022405564785,
                            -1.10614812374115,
                            0.6927992701530457,
                            -0.0544113852083683,
                            -0.1505793035030365,
                            0.21658025681972504,
                            -0.08443279564380646
                        ],
                        [
                            -0.5647479891777039,
                            -0.39203116297721863,
                            0.582626461982727,
                            0.18526849150657654,
                            1.2260345220565796,
                            -1.4688177108764648,
                            -0.25284695625305176,
                            -0.6380718350410461,
                            0.410094678401947,
                            -0.8747389912605286,
                            0.2941681742668152,
                            0.3951775133609772,
                            0.31196701526641846,
                            0.5584961771965027,
                            -0.769133448600769,
                            0.9324507713317871
                        ],
                        [
                            -0.2598945200443268,
                            -0.2546142041683197,
                            0.4132843613624573,
                            0.24985909461975098,
                            1.005934238433838,
                            -0.9811034202575684,
                            -0.42403215169906616,
                            -0.3051012456417084,
                            0.46844589710235596,
                            -0.511135995388031,
                            0.6646372079849243,
                            -0.33302879333496094,
                            0.22121654450893402,
                            0.5377400517463684,
                            -0.44122016429901123,
                            0.36198920011520386
                        ],
                        [
                            0.37189722061157227,
                            0.09387192130088806,
                            -0.09726414829492569,
                            -0.3082437813282013,
                            0.3607270419597626,
                            1.167853593826294,
                            -1.0857620239257812,
                            0.10151457786560059,
                            -0.15606774389743805,
                            0.5168196558952332,
                            2.335430860519409,
                            -1.7408201694488525,
                            -0.0821337178349495,
                            -0.025239519774913788,
                            -0.01712702214717865,
                            -0.5164062976837158
                        ],
                        [
                            0.14829008281230927,
                            -0.011483228765428066,
                            -0.04614274576306343,
                            0.08514378219842911,
                            -0.440083771944046,
                            0.3472220003604889,
                            0.2978411912918091,
                            -0.005031196866184473,
                            0.03147681802511215,
                            0.16622813045978546,
                            -0.5662118196487427,
                            0.5808674097061157,
                            -0.09891998022794724,
                            -0.05094277486205101,
                            0.09372207522392273,
                            -0.09062311053276062
                        ],
                        [
                            0.1588207483291626,
                            0.14836788177490234,
                            -0.015520313754677773,
                            -0.2220391482114792,
                            0.32192400097846985,
                            -0.0013184030540287495,
                            -0.3614517152309418,
                            0.24138179421424866,
                            0.021922310814261436,
                            -0.05050767958164215,
                            0.973487913608551,
                            -0.7834054827690125,
                            -0.15378578007221222,
                            -0.05991648882627487,
                            -0.12289464473724365,
                            -0.17918139696121216
                        ]
                    ],
                    [
                        [
                            -0.15434522926807404,
                            -0.27780720591545105,
                            0.3472987711429596,
                            0.28532907366752625,
                            0.5651203393936157,
                            0.16370011866092682,
                            -0.49496322870254517,
                            -0.3877536952495575,
                            0.17452628910541534,
                            -0.09292560070753098,
                            0.5374240875244141,
                            -0.3736012578010559,
                            0.1831124871969223,
                            0.15623526275157928,
                            -0.4325142502784729,
                            0.3312644958496094
                        ],
                        [
                            0.4660661518573761,
                            0.6400200128555298,
                            -0.6676429510116577,
                            -0.45804837346076965,
                            -1.2404394149780273,
                            -0.1566256880760193,
                            0.8329153060913086,
                            0.8804749846458435,
                            -0.3588343560695648,
                            0.13251765072345734,
                            -0.9872426390647888,
                            0.9591948390007019,
                            -0.5952593088150024,
                            -0.3729989528656006,
                            0.6624554395675659,
                            -0.956609845161438
                        ],
                        [
                            0.44586798548698425,
                            0.44370073080062866,
                            -0.5996312499046326,
                            -0.37102532386779785,
                            -0.9338818192481995,
                            -0.02249925024807453,
                            0.6757348775863647,
                            0.5782350897789001,
                            -0.4227982759475708,
                            0.13812746107578278,
                            -0.7296761274337769,
                            0.7259941697120667,
                            -0.4094283878803253,
                            -0.31303223967552185,
                            0.5118506550788879,
                            -1.0134066343307495
                        ],
                        [
                            -0.11334696412086487,
                            -0.22111162543296814,
                            0.29659929871559143,
                            0.24509884417057037,
                            0.3575994670391083,
                            0.34090325236320496,
                            -0.43127861618995667,
                            -0.3233153223991394,
                            0.1109866052865982,
                            -0.08622638881206512,
                            0.4835277497768402,
                            -0.3971641957759857,
                            0.003786766901612282,
                            0.10947389155626297,
                            -0.38354435563087463,
                            0.039966315031051636
                        ],
                        [
                            0.024190053343772888,
                            -0.10626998543739319,
                            0.31559816002845764,
                            0.189943328499794,
                            0.2921181917190552,
                            0.6103936433792114,
                            -0.790490448474884,
                            -0.4431440532207489,
                            -0.07995279878377914,
                            0.18836118280887604,
                            0.6743246912956238,
                            -0.7885091304779053,
                            0.13974511623382568,
                            0.0974840298295021,
                            -0.2858242392539978,
                            0.07035715132951736
                        ],
                        [
                            0.4040755331516266,
                            0.4162712097167969,
                            -0.41649848222732544,
                            -0.3628188967704773,
                            -0.5854663252830505,
                            -0.03914970904588699,
                            0.41140252351760864,
                            0.40150538086891174,
                            -0.30109044909477234,
                            0.1586625576019287,
                            -0.43942591547966003,
                            0.3944844603538513,
                            -0.46236783266067505,
                            -0.4279502034187317,
                            0.5669224858283997,
                            -0.8545368909835815
                        ],
                        [
                            -0.18503788113594055,
                            -0.16511258482933044,
                            0.23818719387054443,
                            -0.044851720333099365,
                            0.38225626945495605,
                            0.09258169680833817,
                            -0.07287000119686127,
                            -0.22692671418190002,
                            -0.06936103105545044,
                            0.005681438371539116,
                            0.2707361876964569,
                            0.06244801729917526,
                            -0.03975591063499451,
                            0.14848338067531586,
                            -0.28719955682754517,
                            0.19179749488830566
                        ],
                        [
                            -0.032677218317985535,
                            0.15035559237003326,
                            -0.22786784172058105,
                            -0.04216166213154793,
                            -0.2941882014274597,
                            -0.31222963333129883,
                            0.28251194953918457,
                            0.2712275981903076,
                            -0.08773697167634964,
                            -0.08698707818984985,
                            -0.4128030836582184,
                            0.21743588149547577,
                            -0.05477846786379814,
                            0.0073488689959049225,
                            0.193873792886734,
                            -0.06762878596782684
                        ],
                        [
                            -0.11329690366983414,
                            0.06638705730438232,
                            -0.20437438786029816,
                            0.08055895566940308,
                            -0.2340296506881714,
                            -0.32520371675491333,
                            0.4259718060493469,
                            0.2514709532260895,
                            -0.021354611963033676,
                            -0.20816637575626373,
                            -0.3695176839828491,
                            0.5518773198127747,
                            -0.07225906848907471,
                            -0.06506302207708359,
                            0.26681143045425415,
                            0.06512277573347092
                        ],
                        [
                            -0.03252338618040085,
                            -0.011532376520335674,
                            0.12065207213163376,
                            0.06060502305626869,
                            0.11684431880712509,
                            0.21940909326076508,
                            -0.23475071787834167,
                            -0.1493108719587326,
                            0.07437162846326828,
                            0.07749965041875839,
                            0.21582460403442383,
                            -0.29605501890182495,
                            -0.047458942979574203,
                            0.176801398396492,
                            -0.18704751133918762,
                            0.03454780951142311
                        ],
                        [
                            -0.01724342070519924,
                            -0.054191820323467255,
                            0.048081256449222565,
                            0.16110318899154663,
                            0.18366765975952148,
                            0.15797342360019684,
                            -0.02587321400642395,
                            -0.1036791056394577,
                            0.16631482541561127,
                            0.035029955208301544,
                            0.057610344141721725,
                            -0.10128290951251984,
                            0.047781553119421005,
                            0.10700178146362305,
                            -0.18473780155181885,
                            0.17967981100082397
                        ],
                        [
                            0.3876911997795105,
                            0.3658295273780823,
                            -0.3926110863685608,
                            -0.44548606872558594,
                            -0.7632916569709778,
                            -0.09996262937784195,
                            0.39649003744125366,
                            0.42543452978134155,
                            -0.2769421637058258,
                            0.09668923169374466,
                            -0.5558153986930847,
                            0.41784700751304626,
                            -0.4088174104690552,
                            -0.30967390537261963,
                            0.6061580777168274,
                            -0.7816168665885925
                        ],
                        [
                            0.4010102450847626,
                            0.3644936978816986,
                            -0.4927714467048645,
                            -0.23400983214378357,
                            -0.4905830919742584,
                            -0.3205488324165344,
                            0.5037756562232971,
                            0.4022708237171173,
                            -0.33296623826026917,
                            0.23306383192539215,
                            -0.4477301239967346,
                            0.41512784361839294,
                            -0.2667282819747925,
                            -0.3654400706291199,
                            0.42740169167518616,
                            -0.7446008324623108
                        ],
                        [
                            -0.12965191900730133,
                            -0.47802862524986267,
                            0.650501549243927,
                            0.35603687167167664,
                            1.1353883743286133,
                            0.5668477416038513,
                            -1.1333590745925903,
                            -0.7701398134231567,
                            0.3757270872592926,
                            0.08211304247379303,
                            1.2289119958877563,
                            -1.0535303354263306,
                            0.43362945318222046,
                            0.2661649286746979,
                            -0.9322751760482788,
                            0.8118670582771301
                        ],
                        [
                            -0.25887331366539,
                            -0.22846941649913788,
                            0.3620220422744751,
                            0.17205938696861267,
                            0.36329102516174316,
                            0.17408809065818787,
                            -0.3431473970413208,
                            -0.4198923110961914,
                            0.17965175211429596,
                            -0.13774752616882324,
                            0.4367620348930359,
                            -0.1187760978937149,
                            0.1218794658780098,
                            0.14787472784519196,
                            -0.43733152747154236,
                            0.383655846118927
                        ],
                        [
                            0.12186635285615921,
                            0.1993686556816101,
                            -0.27535921335220337,
                            -0.08726220577955246,
                            -0.16461490094661713,
                            -0.3549068570137024,
                            0.3695313036441803,
                            0.2849936783313751,
                            -0.1346338540315628,
                            -0.010961025953292847,
                            -0.29130294919013977,
                            0.2935599088668823,
                            -0.09713321924209595,
                            -0.15475745499134064,
                            0.14712391793727875,
                            -0.0397731177508831
                        ]
                    ],
                    [
                        [
                            -0.08111947774887085,
                            0.17722158133983612,
                            -0.03413906320929527,
                            -0.07995574176311493,
                            -0.1019648090004921,
                            -0.06755789369344711,
                            0.32485002279281616,
                            0.19776543974876404,
                            0.00020572611538227648,
                            0.09197085350751877,
                            -0.29862141609191895,
                            0.15871545672416687,
                            -0.1216517984867096,
                            -0.008580087684094906,
                            -0.04344547167420387,
                            -0.21278692781925201
                        ],
                        [
                            0.02841150015592575,
                            -0.24442517757415771,
                            0.35256215929985046,
                            -0.019571149721741676,
                            0.35370051860809326,
                            0.27401071786880493,
                            -0.45530810952186584,
                            -0.4036766290664673,
                            0.004960570950061083,
                            0.13275565207004547,
                            0.27140501141548157,
                            -0.3757687509059906,
                            0.17117387056350708,
                            0.054428230971097946,
                            0.03361862152814865,
                            0.13868413865566254
                        ],
                        [
                            0.04435800388455391,
                            -0.32628917694091797,
                            0.2691277265548706,
                            0.18711812794208527,
                            0.3012942671775818,
                            0.18322093784809113,
                            -0.4194831848144531,
                            -0.4454720616340637,
                            0.12841796875,
                            -0.17944547533988953,
                            0.41718941926956177,
                            -0.26653411984443665,
                            0.30624300241470337,
                            0.08705068379640579,
                            -0.3673429489135742,
                            0.3009331524372101
                        ],
                        [
                            0.1337638944387436,
                            0.1975914090871811,
                            -0.0020953980274498463,
                            -0.14812038838863373,
                            -0.08275841176509857,
                            -0.06243322044610977,
                            -0.04620452597737312,
                            0.08389251679182053,
                            0.007505021058022976,
                            -0.019474994391202927,
                            -0.10584177076816559,
                            -0.07858721166849136,
                            -0.04467364773154259,
                            -0.09970760345458984,
                            0.14323663711547852,
                            -0.1044391319155693
                        ],
                        [
                            0.0263630673289299,
                            0.09055742621421814,
                            -0.06814455986022949,
                            0.03196693956851959,
                            -0.13761506974697113,
                            -0.10566695779561996,
                            0.09000729024410248,
                            0.12176202982664108,
                            -0.12450829148292542,
                            0.08993128687143326,
                            -0.17498771846294403,
                            0.16845495998859406,
                            -0.24844248592853546,
                            -0.10320807993412018,
                            -0.20209120213985443,
                            -0.1618022620677948
                        ],
                        [
                            0.0761403888463974,
                            -0.33005210757255554,
                            0.3034979999065399,
                            0.10052227228879929,
                            0.2845402657985687,
                            0.23648491501808167,
                            -0.45087024569511414,
                            -0.3426796495914459,
                            0.26544368267059326,
                            -0.17077788710594177,
                            0.29972174763679504,
                            -0.3592548072338104,
                            0.37316054105758667,
                            0.17514505982398987,
                            -0.06033651530742645,
                            0.2195787876844406
                        ],
                        [
                            0.0012930023949593306,
                            0.12720799446105957,
                            -0.22747893631458282,
                            -0.05125366151332855,
                            -0.2927221357822418,
                            -0.02423200197517872,
                            0.1951753944158554,
                            0.15989568829536438,
                            -0.07903099805116653,
                            0.1878526210784912,
                            -0.3295772671699524,
                            0.17140021920204163,
                            -0.07915754616260529,
                            -0.17658495903015137,
                            0.2577466070652008,
                            -0.11365062743425369
                        ],
                        [
                            -0.09814207255840302,
                            -0.042066216468811035,
                            0.165644571185112,
                            0.11178448051214218,
                            0.04373174533247948,
                            -0.0793314054608345,
                            -0.017260529100894928,
                            -0.05423372983932495,
                            0.13157881796360016,
                            -0.10049289464950562,
                            0.09427112340927124,
                            0.04491272196173668,
                            0.021059000864624977,
                            0.1314585953950882,
                            -0.1094006597995758,
                            0.08455488085746765
                        ],
                        [
                            0.052402064204216,
                            -0.1581197828054428,
                            -0.03247176855802536,
                            0.06291501969099045,
                            0.21108020842075348,
                            0.06001748889684677,
                            -0.06701162457466125,
                            -0.08079684525728226,
                            0.05565459281206131,
                            -0.11580133438110352,
                            0.13336630165576935,
                            -0.011792602948844433,
                            0.2008901983499527,
                            -0.02467336319386959,
                            0.012987073510885239,
                            0.16622617840766907
                        ],
                        [
                            -0.06732354313135147,
                            0.17270608246326447,
                            0.07013846188783646,
                            -0.06105172261595726,
                            -0.1442972868680954,
                            -0.03507409244775772,
                            0.031010974198579788,
                            0.11479611694812775,
                            0.014760296791791916,
                            0.16078588366508484,
                            -0.007608025334775448,
                            -0.07758098840713501,
                            -0.013540571555495262,
                            -0.12989787757396698,
                            0.02586718276143074,
                            -0.03812805935740471
                        ],
                        [
                            0.11177370697259903,
                            -0.0037288495805114508,
                            -0.020679732784628868,
                            -0.08123281598091125,
                            -0.13382172584533691,
                            -0.0895996019244194,
                            0.19278189539909363,
                            0.3630307912826538,
                            0.062253210693597794,
                            0.02122083306312561,
                            -0.2262563705444336,
                            -0.012849835678935051,
                            -0.1319451928138733,
                            -0.07926192879676819,
                            -0.013078317977488041,
                            -0.06810207664966583
                        ],
                        [
                            0.0388486385345459,
                            -0.1674664467573166,
                            0.22982361912727356,
                            0.16294600069522858,
                            0.2368781417608261,
                            0.2848226726055145,
                            -0.3384368121623993,
                            -0.42058947682380676,
                            0.17295639216899872,
                            -0.06909342110157013,
                            0.2901555299758911,
                            -0.17155689001083374,
                            0.3099592328071594,
                            0.15643645823001862,
                            -0.29639899730682373,
                            0.39957374334335327
                        ],
                        [
                            -0.11261801421642303,
                            -0.18783782422542572,
                            0.32427307963371277,
                            0.04505959898233414,
                            0.3144513964653015,
                            0.10034674406051636,
                            -0.2949943244457245,
                            -0.18694932758808136,
                            0.08484148979187012,
                            -0.07861070334911346,
                            0.30264514684677124,
                            -0.042963895946741104,
                            0.28492820262908936,
                            0.07406571507453918,
                            -0.3746010661125183,
                            0.37938985228538513
                        ],
                        [
                            0.009167065843939781,
                            0.05017134174704552,
                            -0.04956888034939766,
                            0.00010162882972508669,
                            0.03476142883300781,
                            0.035761330276727676,
                            0.13674214482307434,
                            -0.1976575404405594,
                            -0.0795234888792038,
                            -0.10999985784292221,
                            0.016635378822684288,
                            -0.14896415174007416,
                            0.14004051685333252,
                            -0.15269960463047028,
                            0.2427033931016922,
                            -0.05678469315171242
                        ],
                        [
                            0.04058155417442322,
                            0.28432661294937134,
                            -0.20303602516651154,
                            -0.09728921204805374,
                            -0.19927050173282623,
                            0.008071689866483212,
                            0.04694071784615517,
                            0.35396280884742737,
                            -0.1211511492729187,
                            0.16339047253131866,
                            -0.20838011801242828,
                            0.07491067796945572,
                            -0.19986838102340698,
                            -0.04092752933502197,
                            0.12743720412254333,
                            -0.09689313173294067
                        ],
                        [
                            -0.03544090688228607,
                            -0.03817290812730789,
                            0.11557865142822266,
                            0.020501239225268364,
                            0.20726943016052246,
                            -0.03677857667207718,
                            -0.16325892508029938,
                            -0.23529700934886932,
                            0.0013187407748773694,
                            -0.16701412200927734,
                            0.12004712224006653,
                            -0.0783744677901268,
                            0.08509466797113419,
                            0.07304143905639648,
                            0.010202482342720032,
                            0.05557665973901749
                        ]
                    ],
                    [
                        [
                            -0.12056372314691544,
                            0.09809694439172745,
                            -0.058569200336933136,
                            0.1449447125196457,
                            0.0683499127626419,
                            0.08950075507164001,
                            0.03335253521800041,
                            -0.07528312504291534,
                            0.11566128581762314,
                            -0.05937710031867027,
                            -0.046126775443553925,
                            0.012692894786596298,
                            -0.15518508851528168,
                            0.12646391987800598,
                            -0.1334783285856247,
                            0.03399384766817093
                        ],
                        [
                            -0.02202947996556759,
                            0.02123519964516163,
                            -0.0679365023970604,
                            0.1433069407939911,
                            -0.12172748148441315,
                            -0.04590584337711334,
                            -0.02471015229821205,
                            -0.00491169560700655,
                            -0.12175941467285156,
                            -0.014113279990851879,
                            -0.09141838550567627,
                            0.14524056017398834,
                            -0.018637098371982574,
                            -0.2430076003074646,
                            0.048716410994529724,
                            -0.15792202949523926
                        ],
                        [
                            -0.1235055923461914,
                            -0.020014874637126923,
                            0.04303831607103348,
                            0.10818638652563095,
                            0.1582413911819458,
                            0.12358459085226059,
                            -0.11610930413007736,
                            0.0683099776506424,
                            0.056421827524900436,
                            0.027314867824316025,
                            0.03185581415891647,
                            0.05636882781982422,
                            0.1767047643661499,
                            -0.22790877521038055,
                            -0.16346794366836548,
                            -0.016608839854598045
                        ],
                        [
                            -0.045317143201828,
                            0.09471641480922699,
                            -0.09699927270412445,
                            0.0012129173846915364,
                            -0.12020187824964523,
                            0.0879562720656395,
                            -0.11807797849178314,
                            0.04580872133374214,
                            -0.018897293135523796,
                            0.029927507042884827,
                            0.14072304964065552,
                            -0.050202906131744385,
                            -0.0756121575832367,
                            0.06067388504743576,
                            -0.0891311839222908,
                            0.04259392246603966
                        ],
                        [
                            -0.08188675343990326,
                            -0.08518089354038239,
                            -0.0493907555937767,
                            0.0010212118504568934,
                            0.12680476903915405,
                            0.1499786525964737,
                            -0.14564119279384613,
                            0.0035547707229852676,
                            0.07429581135511398,
                            -0.009465868584811687,
                            0.03583065792918205,
                            -0.02269516885280609,
                            -0.0609368160367012,
                            0.24804021418094635,
                            -0.08654507994651794,
                            -0.004116456490010023
                        ],
                        [
                            0.11302139610052109,
                            0.11876741051673889,
                            -0.020179927349090576,
                            0.059329621493816376,
                            0.06686181575059891,
                            0.1452045738697052,
                            0.15665525197982788,
                            0.06017594411969185,
                            0.0290733203291893,
                            -0.02053542621433735,
                            -0.04899768531322479,
                            0.12841449677944183,
                            0.10408379882574081,
                            -0.23372267186641693,
                            0.11266431212425232,
                            -0.18688927590847015
                        ],
                        [
                            0.02677467092871666,
                            0.0038024000823497772,
                            -0.004958585370332003,
                            0.010484643280506134,
                            0.04889776557683945,
                            -0.11461371183395386,
                            0.0838310644030571,
                            -0.14628610014915466,
                            -0.04383348673582077,
                            0.06576851010322571,
                            -0.146436870098114,
                            -0.024988142773509026,
                            -0.10630911588668823,
                            0.1198822632431984,
                            0.10612253099679947,
                            -0.11893554776906967
                        ],
                        [
                            -0.0008162245503626764,
                            -0.16504988074302673,
                            0.09998900443315506,
                            -0.11004626005887985,
                            0.08068875223398209,
                            -0.12237947434186935,
                            0.06407136470079422,
                            -0.03951374813914299,
                            0.05053072050213814,
                            0.00046133113210089505,
                            0.024296140298247337,
                            0.13317552208900452,
                            0.0009803116554394364,
                            0.08033917844295502,
                            -0.11540532112121582,
                            0.07447007298469543
                        ],
                        [
                            0.08814115822315216,
                            -0.10614707320928574,
                            0.165087029337883,
                            0.026990216225385666,
                            -0.08213819563388824,
                            0.09251835197210312,
                            -0.03742602840065956,
                            0.1462382823228836,
                            0.07098895311355591,
                            -0.15188299119472504,
                            0.0962037444114685,
                            -0.024731654673814774,
                            -0.08012687414884567,
                            0.016940811648964882,
                            0.013731694780290127,
                            0.03943512216210365
                        ],
                        [
                            -0.09359793365001678,
                            0.061956532299518585,
                            -0.013947024010121822,
                            -0.029725784435868263,
                            0.016510294750332832,
                            -0.007783214561641216,
                            -0.17751675844192505,
                            0.0007617619703523815,
                            0.03980636224150658,
                            0.09373346716165543,
                            -0.024517621845006943,
                            -0.06118537113070488,
                            -0.016923734918236732,
                            -0.019446982070803642,
                            -0.06007679924368858,
                            -0.07322145998477936
                        ],
                        [
                            -0.040272265672683716,
                            0.07394896447658539,
                            -0.12021836638450623,
                            0.0846543163061142,
                            0.07258418202400208,
                            -0.0663524940609932,
                            -0.10856877267360687,
                            -0.018252993002533913,
                            -0.051861103624105453,
                            0.09637221693992615,
                            0.08529787510633469,
                            -0.08168330043554306,
                            -0.002833228325471282,
                            -0.01828286238014698,
                            -0.09023840725421906,
                            0.02460428886115551
                        ],
                        [
                            -0.011231057345867157,
                            0.16836419701576233,
                            0.01103305071592331,
                            -0.038391221314668655,
                            -0.06808798760175705,
                            0.1963338553905487,
                            0.19818611443042755,
                            0.07420454174280167,
                            -0.11797273904085159,
                            -0.047323379665613174,
                            -0.02188495546579361,
                            0.04318133369088173,
                            -0.006456105038523674,
                            -0.1226692870259285,
                            0.018033629283308983,
                            -0.28023046255111694
                        ],
                        [
                            -0.04254500940442085,
                            -0.07660941779613495,
                            0.11693473160266876,
                            -0.10362367331981659,
                            -0.011117814108729362,
                            0.12615422904491425,
                            -0.005207717418670654,
                            0.04581460729241371,
                            -0.09515881538391113,
                            -0.025088878348469734,
                            -0.05421463027596474,
                            -0.02873595803976059,
                            0.1401102989912033,
                            -0.2244652360677719,
                            -0.14287908375263214,
                            0.08782173693180084
                        ],
                        [
                            0.07164504379034042,
                            0.1297326236963272,
                            0.009196462109684944,
                            -0.12996529042720795,
                            -0.0796823650598526,
                            -0.0402986966073513,
                            0.08359068632125854,
                            -0.01566368155181408,
                            -0.07110939919948578,
                            -0.03801669925451279,
                            -0.08227891474962234,
                            0.21270424127578735,
                            0.19366832077503204,
                            -0.14556188881397247,
                            0.27299126982688904,
                            -0.10878585278987885
                        ],
                        [
                            -0.056793615221977234,
                            0.03258537873625755,
                            -0.07611190527677536,
                            -0.002656491007655859,
                            0.057855088263750076,
                            -0.02784039080142975,
                            0.04295076057314873,
                            -0.10259518772363663,
                            0.00027413672069087625,
                            0.012332002632319927,
                            -0.028674835339188576,
                            -0.10507170855998993,
                            -0.1659703552722931,
                            0.023499013856053352,
                            0.013922469690442085,
                            0.007675103843212128
                        ],
                        [
                            -0.11912088841199875,
                            -0.006662234663963318,
                            0.1254163533449173,
                            -0.13026557862758636,
                            0.035594452172517776,
                            -0.09904801100492477,
                            0.17525629699230194,
                            -0.09393317252397537,
                            0.10142572224140167,
                            0.01865405961871147,
                            0.061927929520606995,
                            0.11348365992307663,
                            -0.052288081496953964,
                            0.03273528069257736,
                            -0.007468170020729303,
                            -0.06867614388465881
                        ]
                    ],
                    [
                        [
                            -0.15909913182258606,
                            -0.037049729377031326,
                            0.014627421274781227,
                            0.18201132118701935,
                            0.003174734301865101,
                            -0.1024903953075409,
                            -0.13369251787662506,
                            -0.04507629573345184,
                            0.04900403693318367,
                            -0.11804170906543732,
                            0.030170796439051628,
                            -0.07683530449867249,
                            -0.07625266909599304,
                            0.17964819073677063,
                            -0.20304466784000397,
                            0.08689470589160919
                        ],
                        [
                            0.026797164231538773,
                            0.03592938557267189,
                            0.053920578211545944,
                            -0.05492334067821503,
                            -0.11808037012815475,
                            -0.08811602741479874,
                            0.040786851197481155,
                            0.024744877591729164,
                            -0.04770812392234802,
                            0.02800312452018261,
                            -0.07635224610567093,
                            0.09492802619934082,
                            0.1430051177740097,
                            -0.00658455491065979,
                            0.2851746380329132,
                            -0.09267839789390564
                        ],
                        [
                            0.16701534390449524,
                            -0.05806136131286621,
                            0.16375046968460083,
                            -0.09617497771978378,
                            0.1611994504928589,
                            -0.01577105186879635,
                            -0.0014863393735140562,
                            0.06783860176801682,
                            -0.16094860434532166,
                            -0.00948693323880434,
                            0.009118405170738697,
                            -0.12055157870054245,
                            0.11150717735290527,
                            -0.04207858815789223,
                            0.015849046409130096,
                            0.11266054213047028
                        ],
                        [
                            -0.1118500679731369,
                            0.09003102779388428,
                            -0.022584429010748863,
                            0.024244962260127068,
                            0.034355081617832184,
                            0.09113968908786774,
                            -0.04190364107489586,
                            -0.04354071617126465,
                            -0.12857145071029663,
                            -0.10155996680259705,
                            0.06107467785477638,
                            0.05037825554609299,
                            -0.0015925748739391565,
                            -0.004003884736448526,
                            0.06567389518022537,
                            0.14844076335430145
                        ],
                        [
                            0.08004231750965118,
                            -0.08662381023168564,
                            -0.24332791566848755,
                            -0.09507902711629868,
                            -0.06196282431483269,
                            0.08622123301029205,
                            0.05975201725959778,
                            -0.06605479121208191,
                            -0.10924029350280762,
                            0.19003285467624664,
                            0.025578847154974937,
                            -0.12024771422147751,
                            -0.2429242879152298,
                            0.08323269337415695,
                            -0.10198308527469635,
                            0.07884808629751205
                        ],
                        [
                            0.16185669600963593,
                            0.07189205288887024,
                            -0.06895346194505692,
                            -0.05270228534936905,
                            0.08541803061962128,
                            0.0625273808836937,
                            0.002399720251560211,
                            -0.0326545313000679,
                            0.04521583765745163,
                            0.13675403594970703,
                            -0.006193888373672962,
                            0.018779313191771507,
                            0.03849714994430542,
                            -0.045564115047454834,
                            0.1806667447090149,
                            -0.08392755687236786
                        ],
                        [
                            -0.00847137626260519,
                            0.1444057822227478,
                            -0.15559352934360504,
                            0.06664194166660309,
                            -0.11089357733726501,
                            -0.11042448878288269,
                            -0.08631274104118347,
                            -0.1261356770992279,
                            0.11364469677209854,
                            0.03729484602808952,
                            -0.14513655006885529,
                            0.054018784314394,
                            -0.03930468112230301,
                            0.19813820719718933,
                            0.207178995013237,
                            -0.08755128085613251
                        ],
                        [
                            -0.025729384273290634,
                            -0.030397899448871613,
                            -0.0022065138909965754,
                            0.036266956478357315,
                            0.01640237681567669,
                            -0.030308734625577927,
                            -0.029853828251361847,
                            -0.0512860082089901,
                            0.010275965556502342,
                            -0.15643009543418884,
                            0.12665265798568726,
                            0.07727938890457153,
                            0.10950496047735214,
                            -0.06645135581493378,
                            -0.3153676390647888,
                            0.06423386186361313
                        ],
                        [
                            0.10062982887029648,
                            -0.1396062672138214,
                            0.06762576848268509,
                            0.02335175685584545,
                            0.025106415152549744,
                            -0.05797848105430603,
                            0.06289911270141602,
                            0.023183856159448624,
                            0.006719602271914482,
                            -0.007285804953426123,
                            -0.029345626011490822,
                            -0.10094104707241058,
                            -0.008100450038909912,
                            -0.16661682724952698,
                            -0.06222793832421303,
                            0.02873104438185692
                        ],
                        [
                            -0.028173452243208885,
                            0.08888610452413559,
                            -0.07359439134597778,
                            0.029519760981202126,
                            -0.05484013631939888,
                            0.016189994290471077,
                            -0.15384703874588013,
                            0.07708017528057098,
                            -0.10958262532949448,
                            0.10296961665153503,
                            0.07495707273483276,
                            0.06494268774986267,
                            0.02652943879365921,
                            0.13190387189388275,
                            -0.1557040810585022,
                            0.1328924298286438
                        ],
                        [
                            -0.10026267915964127,
                            -0.006559204775840044,
                            -0.02295335941016674,
                            0.05907544493675232,
                            -0.01967714913189411,
                            -0.05441313609480858,
                            -0.0074717700481414795,
                            0.06954225152730942,
                            -0.045345183461904526,
                            0.033679503947496414,
                            0.03189957141876221,
                            -0.16453829407691956,
                            -0.10304301232099533,
                            0.22964413464069366,
                            -0.20114965736865997,
                            0.017520107328891754
                        ],
                        [
                            0.20851729810237885,
                            0.11287987232208252,
                            0.15605054795742035,
                            -0.07024098932743073,
                            0.14244015514850616,
                            0.114017553627491,
                            -0.012442881241440773,
                            0.1374617964029312,
                            -0.10926325619220734,
                            -0.04514981061220169,
                            -0.08933652937412262,
                            0.004691591951996088,
                            0.14775533974170685,
                            -0.24824880063533783,
                            0.4888881742954254,
                            -0.04774907976388931
                        ],
                        [
                            -0.05424310266971588,
                            -0.07687574625015259,
                            0.003822910599410534,
                            -0.02874286286532879,
                            -0.06153899058699608,
                            0.08597517758607864,
                            -0.03624710440635681,
                            -0.018734319135546684,
                            0.08875932544469833,
                            -0.08079251646995544,
                            0.04058954492211342,
                            0.19038332998752594,
                            0.013271252624690533,
                            -0.1380992978811264,
                            -0.09470406174659729,
                            0.07530510425567627
                        ],
                        [
                            0.06212219223380089,
                            0.09612878412008286,
                            -0.10637368261814117,
                            -0.09701705724000931,
                            0.1191888079047203,
                            -0.10166340321302414,
                            0.23856200277805328,
                            -0.1602018177509308,
                            0.11077948659658432,
                            -0.021813057363033295,
                            -0.03940046578645706,
                            0.08438298106193542,
                            0.1306595802307129,
                            -0.13529707491397858,
                            0.28489479422569275,
                            -0.1338357925415039
                        ],
                        [
                            0.1142999455332756,
                            0.1531480997800827,
                            0.004986094310879707,
                            0.03546486422419548,
                            0.07544222474098206,
                            -0.049231212586164474,
                            -0.02681560255587101,
                            0.038471877574920654,
                            -0.009081104770302773,
                            0.022350890561938286,
                            -0.06629875302314758,
                            -0.03770953789353371,
                            -0.12231186777353287,
                            0.16372650861740112,
                            0.13609665632247925,
                            0.04733429104089737
                        ],
                        [
                            0.07162734121084213,
                            -0.07136058062314987,
                            0.09744270890951157,
                            0.017392681911587715,
                            -0.017075087875127792,
                            -0.04087725281715393,
                            0.13663996756076813,
                            0.07943218946456909,
                            -0.041324567049741745,
                            -0.03982726112008095,
                            -0.06535083800554276,
                            -0.03516380861401558,
                            0.1736665964126587,
                            -0.03888850659132004,
                            -0.12099174410104752,
                            0.030588285997509956
                        ]
                    ],
                    [
                        [
                            0.08533989638090134,
                            0.008895955048501492,
                            0.13361437618732452,
                            0.045791614800691605,
                            -0.02330711856484413,
                            -0.08206824213266373,
                            0.005377495661377907,
                            0.06576356291770935,
                            0.03544817119836807,
                            -0.08496613055467606,
                            -0.12599118053913116,
                            -0.014424830675125122,
                            0.08185882121324539,
                            0.2253722995519638,
                            -0.11140082031488419,
                            0.24248354136943817
                        ],
                        [
                            0.07886119931936264,
                            0.016097046434879303,
                            0.09208925813436508,
                            -0.12643776834011078,
                            0.01366429403424263,
                            0.11428797245025635,
                            -0.0686774030327797,
                            -0.08354651182889938,
                            0.057515375316143036,
                            -0.05832589417695999,
                            -0.10509395599365234,
                            0.1810072660446167,
                            0.1819320023059845,
                            0.1067766398191452,
                            0.025367693975567818,
                            0.002978125587105751
                        ],
                        [
                            0.08218327164649963,
                            0.04464482516050339,
                            0.10607966780662537,
                            -0.015807371586561203,
                            0.055764228105545044,
                            0.05839629843831062,
                            0.005523703992366791,
                            0.08974721282720566,
                            -0.04024912416934967,
                            -0.09799288213253021,
                            0.026893630623817444,
                            -0.024063337594270706,
                            -0.015086605213582516,
                            0.030629126355051994,
                            -0.026047805324196815,
                            0.02069556713104248
                        ],
                        [
                            0.0721910297870636,
                            0.09659063071012497,
                            0.030036762356758118,
                            0.03236796706914902,
                            0.052444469183683395,
                            0.05245388671755791,
                            -0.07898106426000595,
                            0.047225505113601685,
                            -0.015352980233728886,
                            -0.04326590895652771,
                            -0.15904931724071503,
                            0.1293250471353531,
                            -0.02418242208659649,
                            0.11333169043064117,
                            -0.1740693747997284,
                            -0.020512770861387253
                        ],
                        [
                            0.2799851596355438,
                            0.018125899136066437,
                            0.08288513869047165,
                            -0.15860477089881897,
                            0.03638042137026787,
                            0.09165637195110321,
                            0.06930366903543472,
                            0.09914356470108032,
                            -0.2585400640964508,
                            0.13885565102100372,
                            0.025392752140760422,
                            0.15760599076747894,
                            -0.14370347559452057,
                            0.10243670642375946,
                            -0.14061328768730164,
                            0.09422667324542999
                        ],
                        [
                            0.08178626000881195,
                            0.11051899194717407,
                            -0.049664441496133804,
                            0.08127006143331528,
                            0.02620162069797516,
                            -0.018706314265727997,
                            0.05171903967857361,
                            -0.021832235157489777,
                            -0.08818801492452621,
                            0.06202114373445511,
                            -0.07995697110891342,
                            0.06683722138404846,
                            0.09172870218753815,
                            0.029409222304821014,
                            0.20720553398132324,
                            -0.0376678928732872
                        ],
                        [
                            0.0841459184885025,
                            -0.0007959987269714475,
                            -0.04482397809624672,
                            0.1211235299706459,
                            0.04357435181736946,
                            -0.029146507382392883,
                            0.0630405992269516,
                            -0.11003881692886353,
                            -0.15074406564235687,
                            -0.039672091603279114,
                            -0.056657761335372925,
                            0.05921376496553421,
                            0.11745435744524002,
                            0.17909324169158936,
                            0.23188377916812897,
                            -0.11015468090772629
                        ],
                        [
                            -0.1052468791604042,
                            -0.14819757640361786,
                            -0.05479221045970917,
                            0.13373684883117676,
                            0.034920137375593185,
                            0.05285806953907013,
                            -0.0679457038640976,
                            -0.04411054402589798,
                            0.05151965841650963,
                            -0.11352977901697159,
                            -0.03132510185241699,
                            -0.22267046570777893,
                            0.16015401482582092,
                            0.10558129847049713,
                            -0.096371129155159,
                            -0.06197786331176758
                        ],
                        [
                            -0.15391159057617188,
                            -0.15555869042873383,
                            0.06807366758584976,
                            -0.044587939977645874,
                            0.10483226180076599,
                            0.03143458813428879,
                            -0.04470854997634888,
                            0.006864524912089109,
                            0.1755761355161667,
                            -0.007618265226483345,
                            0.15730731189250946,
                            -0.150101900100708,
                            0.16351105272769928,
                            -0.008922023698687553,
                            0.09253913909196854,
                            -0.013042809441685677
                        ],
                        [
                            0.11080914735794067,
                            -0.07586031407117844,
                            0.0913672149181366,
                            -0.06806086003780365,
                            0.05758903548121452,
                            0.06526479125022888,
                            -0.08783945441246033,
                            0.0669722706079483,
                            0.0036427443847060204,
                            0.0394006073474884,
                            0.08106033504009247,
                            0.02579452469944954,
                            -0.10976837575435638,
                            0.1403220146894455,
                            0.024918071925640106,
                            0.060444317758083344
                        ],
                        [
                            0.1486491709947586,
                            -0.14899225533008575,
                            0.1608046144247055,
                            -0.052385274320840836,
                            0.10196017473936081,
                            -0.00936684850603342,
                            -0.09344175457954407,
                            -0.0027933348901569843,
                            -0.12994202971458435,
                            -0.082747682929039,
                            -0.03364327549934387,
                            0.04202767834067345,
                            0.06626876443624496,
                            0.1092236340045929,
                            -0.1500827819108963,
                            0.16265572607517242
                        ],
                        [
                            0.1033192127943039,
                            0.1981925219297409,
                            -0.1183689683675766,
                            0.06627580523490906,
                            -0.03029516711831093,
                            -0.015638576820492744,
                            -0.004064488224685192,
                            -0.13579362630844116,
                            -0.07891063392162323,
                            0.10375551879405975,
                            0.1368233859539032,
                            -0.03718559443950653,
                            0.03058803081512451,
                            -0.022718064486980438,
                            0.147380530834198,
                            -0.018151063472032547
                        ],
                        [
                            0.006469002924859524,
                            -0.1940314769744873,
                            0.09055788815021515,
                            -0.07949616014957428,
                            -0.024124164134263992,
                            0.07237180322408676,
                            -0.17849089205265045,
                            -0.15942223370075226,
                            0.1644866168498993,
                            -0.01706594228744507,
                            0.07386887818574905,
                            0.11354048550128937,
                            0.07411060482263565,
                            0.025202875956892967,
                            -0.045738451182842255,
                            0.05189797654747963
                        ],
                        [
                            -0.0179166067391634,
                            0.051007870584726334,
                            -0.08802882581949234,
                            0.0813128799200058,
                            0.027934756129980087,
                            0.11664096266031265,
                            0.27673280239105225,
                            -0.2614924907684326,
                            0.1752605438232422,
                            0.14873863756656647,
                            0.03189769387245178,
                            0.050813939422369,
                            0.0011688622180372477,
                            -0.17039932310581207,
                            0.2991620600223541,
                            -0.2917935252189636
                        ],
                        [
                            0.023436330258846283,
                            0.07948033511638641,
                            -0.09615353494882584,
                            0.019525090232491493,
                            -0.022467678412795067,
                            0.035487063229084015,
                            0.037647221237421036,
                            0.12671677768230438,
                            -0.10603901743888855,
                            -0.08392832428216934,
                            -0.044756051152944565,
                            0.06630730628967285,
                            -0.003776612225919962,
                            -0.011515853926539421,
                            0.07166793197393417,
                            -0.06434382498264313
                        ],
                        [
                            -0.1990354359149933,
                            -0.10921864211559296,
                            0.10929533839225769,
                            0.014876622706651688,
                            0.05157081410288811,
                            -0.03747479245066643,
                            -0.14574329555034637,
                            0.001059800386428833,
                            0.025725606828927994,
                            -0.05323357507586479,
                            0.15549319982528687,
                            -0.09227684885263443,
                            0.006848844699561596,
                            0.03242728114128113,
                            -0.11504150182008743,
                            0.022609595209360123
                        ]
                    ],
                    [
                        [
                            0.02435801737010479,
                            -0.10688193887472153,
                            0.1424846649169922,
                            0.12854094803333282,
                            0.02965294010937214,
                            0.08056432753801346,
                            0.03865926340222359,
                            -0.06725253909826279,
                            -0.06841861456632614,
                            -0.1312989890575409,
                            -0.03598157688975334,
                            0.11062221974134445,
                            0.0029314158018678427,
                            0.20714794099330902,
                            -0.1580321490764618,
                            0.19221800565719604
                        ],
                        [
                            0.06801202148199081,
                            -0.11085815727710724,
                            -0.04282287508249283,
                            0.023215532302856445,
                            -0.0413188561797142,
                            0.09251486510038376,
                            0.13420408964157104,
                            -0.26942095160484314,
                            0.13943912088871002,
                            0.022201498970389366,
                            0.04861736670136452,
                            0.06109361723065376,
                            0.07778051495552063,
                            -0.11048690229654312,
                            0.15514057874679565,
                            -0.007794215809553862
                        ],
                        [
                            0.08131858706474304,
                            0.08575955778360367,
                            0.014068277552723885,
                            0.16189120709896088,
                            -0.053629618138074875,
                            -0.06840019673109055,
                            0.09325696527957916,
                            -0.1528899371623993,
                            0.036316968500614166,
                            -0.07683245092630386,
                            0.05914955213665962,
                            -0.07737352699041367,
                            -0.06892036646604538,
                            -0.18437513709068298,
                            -0.06795806437730789,
                            -0.1900668442249298
                        ],
                        [
                            -0.0017149335471913218,
                            0.039703112095594406,
                            -0.026730896905064583,
                            -0.05143117904663086,
                            0.13326554000377655,
                            0.09388173371553421,
                            -0.082680843770504,
                            -0.07059049606323242,
                            0.050559960305690765,
                            -0.029521290212869644,
                            0.08836868405342102,
                            -0.030956558883190155,
                            0.06850500404834747,
                            -0.02288096398115158,
                            -0.033218786120414734,
                            -0.02494502067565918
                        ],
                        [
                            0.26216205954551697,
                            0.008233343251049519,
                            0.19157126545906067,
                            0.015928467735648155,
                            0.124942347407341,
                            0.06367499381303787,
                            -0.09780129790306091,
                            0.23356598615646362,
                            -0.15102842450141907,
                            -0.03617965802550316,
                            0.0878111869096756,
                            0.023679666221141815,
                            -0.0960664227604866,
                            0.26964688301086426,
                            0.05307415872812271,
                            0.16265712678432465
                        ],
                        [
                            -0.09691046178340912,
                            0.06214739754796028,
                            -0.2931460440158844,
                            -0.022653840482234955,
                            0.0074249207973480225,
                            -0.12879692018032074,
                            0.16631461679935455,
                            -0.30268290638923645,
                            0.24335713684558868,
                            0.13784301280975342,
                            -0.12209609150886536,
                            0.07819188386201859,
                            0.09406524896621704,
                            -0.3094269335269928,
                            0.23736290633678436,
                            -0.39470475912094116
                        ],
                        [
                            0.024336325004696846,
                            0.13386645913124084,
                            0.11714416742324829,
                            0.027027539908885956,
                            -0.12187888473272324,
                            -0.1453658938407898,
                            -0.0493907630443573,
                            -0.12994247674942017,
                            -0.1241087019443512,
                            0.028228918090462685,
                            -0.16773664951324463,
                            0.17356184124946594,
                            0.07094304263591766,
                            0.17878463864326477,
                            -0.03313113749027252,
                            -0.06585835665464401
                        ],
                        [
                            -0.0498911589384079,
                            -0.1345697045326233,
                            0.061425622552633286,
                            0.13787369430065155,
                            -0.06726647913455963,
                            -0.07554749399423599,
                            -0.07530364394187927,
                            -0.019905950874090195,
                            0.04619241878390312,
